{"learner":{"attributes":{"scikit_learn":"{\"_estimator_type\": \"classifier\"}"},"feature_names":[],"feature_types":[],"gradient_booster":{"model":{"gbtree_model_param":{"num_parallel_tree":"1","num_trees":"200"},"iteration_indptr":[0,1,2,3,4,5,6,7,8,9,10,11,12,13,14,15,16,17,18,19,20,21,22,23,24,25,26,27,28,29,30,31,32,33,34,35,36,37,38,39,40,41,42,43,44,45,46,47,48,49,50,51,52,53,54,55,56,57,58,59,60,61,62,63,64,65,66,67,68,69,70,71,72,73,74,75,76,77,78,79,80,81,82,83,84,85,86,87,88,89,90,91,92,93,94,95,96,97,98,99,100,101,102,103,104,105,106,107,108,109,110,111,112,113,114,115,116,117,118,119,120,121,122,123,124,125,126,127,128,129,130,131,132,133,134,135,136,137,138,139,140,141,142,143,144,145,146,147,148,149,150,151,152,153,154,155,156,157,158,159,160,161,162,163,164,165,166,167,168,169,170,171,172,173,174,175,176,177,178,179,180,181,182,183,184,185,186,187,188,189,190,191,192,193,194,195,196,197,198,199,200],"tree_info":[0,0,0,0,0,0,0,0,0,0,0,0,0,0,0,0,0,0,0,0,0,0,0,0,0,0,0,0,0,0,0,0,0,0,0,0,0,0,0,0,0,0,0,0,0,0,0,0,0,0,0,0,0,0,0,0,0,0,0,0,0,0,0,0,0,0,0,0,0,0,0,0,0,0,0,0,0,0,0,0,0,0,0,0,0,0,0,0,0,0,0,0,0,0,0,0,0,0,0,0,0,0,0,0,0,0,0,0,0,0,0,0,0,0,0,0,0,0,0,0,0,0,0,0,0,0,0,0,0,0,0,0,0,0,0,0,0,0,0,0,0,0,0,0,0,0,0,0,0,0,0,0,0,0,0,0,0,0,0,0,0,0,0,0,0,0,0,0,0,0,0,0,0,0,0,0,0,0,0,0,0,0,0,0,0,0,0,0,0,0,0,0,0,0,0,0,0,0,0,0],"trees":[{"base_weights":[-1.1443459E-2,-7.344745E-1,1.0536915E0,-1.3142005E0,7.3708236E-1,1.1528724E0,-1.2236911E0,-2.0102327E-1,-1.5482203E0,-1.2068357E-1,1.6694317E0,4.824619E-1,1.5858217E0,1.5504563E-1,-1.8011261E0,1.1474538E0,-1.042623E0,1.155153E0,-1.6365707E0,-8.1995696E-1,1.4069505E0,-3.3881384E-1,1.7702088E0,9.8126704E-1,-6.731412E-1,1.1719173E0,1.8340975E0,-2.2587523E-2,-1.896643E-1,1.35914E-1,-1.20482974E-1,-1.3758385E-1,1.47816E-1,1.7586659E-1,-1.20482974E-1,-1.7001064E-1,8.076542E-3,-1.2689047E-1,1.8307166E-1,-1.1630938E-1,1.7269732E-1,-1.504942E-1,1.328961E-1,1.8327086E-1,-5.112347E-4,-4.362383E-2,1.2956245E-1,-1.1284079E-1,1.3273214E-1,6.1301887E-2,1.6396995E-1,1.8676625E-1,1.0007483E-2],"categories":[],"categories_nodes":[],"categories_segments":[],"categories_sizes":[],"default_left":[0,0,0,0,0,0,0,0,0,0,0,0,0,0,0,0,0,0,0,0,0,0,0,0,0,0,0,0,0,0,0,0,0,0,0,0,0,0,0,0,0,0,0,0,0,0,0,0,0,0,0,0,0],"id":0,"left_children":[1,3,5,7,9,11,13,15,17,19,21,23,25,-1,27,29,31,33,35,37,39,41,43,45,47,49,51,-1,-1,-1,-1,-1,-1,-1,-1,-1,-1,-1,-1,-1,-1,-1,-1,-1,-1,-1,-1,-1,-1,-1,-1,-1,-1],"loss_changes":[1.0275328E3,6.789624E2,1.2326788E2,1.4830566E2,1.803404E2,1.4943964E2,3.963566E1,1.1496666E2,1.1444446E2,1.27470924E2,2.2457123E1,1.185373E2,3.0117615E1,0E0,2.5056E0,2.1057213E1,5.43209E1,2.419501E1,4.9973755E1,9.9605576E1,3.2851044E1,1.3668938E1,1.1437836E1,6.439722E1,5.8190964E1,3.0498322E1,1.1133301E1,0E0,0E0,0E0,0E0,0E0,0E0,0E0,0E0,0E0,0E0,0E0,0E0,0E0,0E0,0E0,0E0,0E0,0E0,0E0,0E0,0E0,0E0,0E0,0E0,0E0,0E0],"parents":[2147483647,0,0,1,1,2,2,3,3,4,4,5,5,6,6,7,7,8,8,9,9,10,10,11,11,12,12,14,14,15,15,16,16,17,17,18,18,19,19,20,20,21,21,22,22,23,23,24,24,25,25,26,26],"right_children":[2,4,6,8,10,12,14,16,18,20,22,24,26,-1,28,30,32,34,36,38,40,42,44,46,48,50,52,-1,-1,-1,-1,-1,-1,-1,-1,-1,-1,-1,-1,-1,-1,-1,-1,-1,-1,-1,-1,-1,-1,-1,-1,-1,-1],"split_conditions":[1.2133327E-2,1.6014172E-1,2.6535273E0,-2.8468248E-1,-6.506577E-2,-2.7815846E-1,8.7190217E-1,6.504337E-2,-8.7429833E-1,8.958519E-3,-1.6687586E0,4.7483093E-1,5.251932E-1,1.5504563E-1,-1.8376899E-1,1.014661E0,1.8073772E-1,6.1176604E-1,8.070212E-1,1.567178E-1,-1.9251776E0,-7.1522784E-1,1.9299235E0,-9.798448E-1,4.075489E-1,-2.7630928E-1,2.767298E0,-2.2587523E-2,-1.896643E-1,1.35914E-1,-1.20482974E-1,-1.3758385E-1,1.47816E-1,1.7586659E-1,-1.20482974E-1,-1.7001064E-1,8.076542E-3,-1.2689047E-1,1.8307166E-1,-1.1630938E-1,1.7269732E-1,-1.504942E-1,1.328961E-1,1.8327086E-1,-5.112347E-4,-4.362383E-2,1.2956245E-1,-1.1284079E-1,1.3273214E-1,6.1301887E-2,1.6396995E-1,1.8676625E-1,1.0007483E-2],"split_indices":[6,0,21,3,43,0,63,101,35,25,34,22,6,0,5,21,49,70,86,34,48,101,171,2,61,49,171,0,0,0,0,0,0,0,0,0,0,0,0,0,0,0,0,0,0,0,0,0,0,0,0,0,0],"split_type":[0,0,0,0,0,0,0,0,0,0,0,0,0,0,0,0,0,0,0,0,0,0,0,0,0,0,0,0,0,0,0,0,0,0,0,0,0,0,0,0,0,0,0,0,0,0,0,0,0,0,0,0,0],"sum_hessian":[1.3322356E3,7.9374146E2,5.384942E2,5.6949384E2,2.2424757E2,5.1649445E2,2.1999763E1,9.924893E1,4.7024493E2,1.1724873E2,1.0699885E2,2.034978E2,3.129966E2,3.4999623E0,1.84998E1,3.799959E1,6.124934E1,1.4499844E1,4.557451E2,8.074913E1,3.6499607E1,4.999946E0,1.019989E2,1.4224846E2,6.124934E1,1.1949871E2,1.9349791E2,1.2499865E0,1.7249813E1,3.524962E1,2.7499704E0,5.4499413E1,6.749927E0,1.1749873E1,2.7499704E0,4.3949527E2,1.6249825E1,6.949925E1,1.1249879E1,3.7499595E0,3.2749645E1,2.9999676E0,1.9999784E0,9.849894E1,3.4999623E0,2.5749722E1,1.1649874E2,5.024946E1,1.0999882E1,5.54994E1,6.399931E1,1.8974796E2,3.7499595E0],"tree_param":{"num_deleted":"0","num_feature":"193","num_nodes":"53","size_leaf_vector":"1"}},{"base_weights":[2.5427795E-3,-6.1065036E-1,1.0006058E0,-1.124608E0,6.852603E-1,1.0936221E0,-1.1159375E0,-1.8464345E-2,-1.3683088E0,-4.058462E-2,1.5017344E0,4.4528452E-1,1.4951305E0,-1.6809489E-1,1.2837063E-1,-9.6225595E-1,9.8395365E-1,-1.4287305E0,1.5859076E-1,-6.17875E-1,1.5588936E0,1.6279528E0,-7.720096E-1,9.4895977E-1,-5.6850606E-1,1.550174E0,-6.0877226E-2,-1.3814484E-1,1.1799099E-1,1.115839E-1,-1.3757119E-1,-1.4767346E-1,9.657129E-2,1.1690108E-1,-1.1130784E-1,-4.740409E-2,1.7732649E-1,-8.204595E-2,1.6952872E-1,-1.6027243E-1,1.1963695E-1,1.5704124E-1,2.7153423E-2,-1.2198748E-1,7.934579E-2,1.2846874E-1,1.7144392E-1,1.5356736E-1,-1.5755486E-1],"categories":[],"categories_nodes":[],"categories_segments":[],"categories_sizes":[],"default_left":[0,0,0,0,0,0,0,0,0,0,0,0,0,0,0,0,0,0,0,0,0,0,0,0,0,0,0,0,0,0,0,0,0,0,0,0,0,0,0,0,0,0,0,0,0,0,0,0,0],"id":1,"left_children":[1,3,5,7,9,11,13,15,17,19,21,23,25,-1,-1,27,29,31,-1,33,35,37,39,41,43,45,47,-1,-1,-1,-1,-1,-1,-1,-1,-1,-1,-1,-1,-1,-1,-1,-1,-1,-1,-1,-1,-1,-1],"loss_changes":[8.1520526E2,5.503227E2,1.0102023E2,1.5933545E2,1.392879E2,1.2586975E2,3.1762405E1,1.0288015E2,8.873529E1,1.1669821E2,3.299437E1,9.619255E1,2.5768494E1,0E0,0E0,5.1916965E1,1.7949097E1,5.6052185E1,0E0,8.343133E1,1.5450821E1,1.871701E1,1.25367985E1,5.2417725E1,5.668268E1,1.0425171E1,2.9513523E1,0E0,0E0,0E0,0E0,0E0,0E0,0E0,0E0,0E0,0E0,0E0,0E0,0E0,0E0,0E0,0E0,0E0,0E0,0E0,0E0,0E0,0E0],"parents":[2147483647,0,0,1,1,2,2,3,3,4,4,5,5,6,6,7,7,8,8,9,9,10,10,11,11,12,12,15,15,16,16,17,17,19,19,20,20,21,21,22,22,23,23,24,24,25,25,26,26],"right_children":[2,4,6,8,10,12,14,16,18,20,22,24,26,-1,-1,28,30,32,-1,34,36,38,40,42,44,46,48,-1,-1,-1,-1,-1,-1,-1,-1,-1,-1,-1,-1,-1,-1,-1,-1,-1,-1,-1,-1,-1,-1],"split_conditions":[7.5742446E-2,1.744217E-1,2.6535273E0,-2.6132718E-1,-4.731097E-2,-2.7815846E-1,-1.0232952E0,-5.435855E-1,1.75562E0,4.195494E-1,1.9299235E0,3.147079E-1,2.7953966E0,-1.6809489E-1,1.2837063E-1,1.7240031E-1,1.4116228E0,1.034692E0,1.5859076E-1,-2.869066E-1,-1.5433246E0,-1.9060076E0,-4.6244237E-1,1.5021157E-1,3.761992E-1,5.9277517E-1,1.3334546E0,-1.3814484E-1,1.1799099E-1,1.115839E-1,-1.3757119E-1,-1.4767346E-1,9.657129E-2,1.1690108E-1,-1.1130784E-1,-4.740409E-2,1.7732649E-1,-8.204595E-2,1.6952872E-1,-1.6027243E-1,1.1963695E-1,1.5704124E-1,2.7153423E-2,-1.2198748E-1,7.934579E-2,1.2846874E-1,1.7144392E-1,1.5356736E-1,-1.5755486E-1],"split_indices":[6,0,21,3,43,0,32,6,42,33,171,22,106,0,0,49,21,173,0,57,51,34,2,9,13,6,29,0,0,0,0,0,0,0,0,0,0,0,0,0,0,0,0,0,0,0,0,0,0],"split_type":[0,0,0,0,0,0,0,0,0,0,0,0,0,0,0,0,0,0,0,0,0,0,0,0,0,0,0,0,0,0,0,0,0,0,0,0,0,0,0,0,0,0,0,0,0,0,0,0,0],"sum_hessian":[1.3300245E3,8.2409973E2,5.0592487E2,5.9017053E2,2.3392921E2,4.850898E2,2.0835075E1,1.0674354E2,4.8342697E2,1.24340706E2,1.095885E2,1.8632681E2,2.98763E2,1.7106695E1,3.728379E0,5.5000145E1,5.1743397E1,4.742438E2,9.183177E0,9.181585E1,3.252486E1,1.0409413E2,5.4943733E0,1.24524185E2,6.1802628E1,2.8855902E2,1.0203969E1,4.6295807E1,8.704336E0,4.950368E1,2.2397175E0,4.6529868E2,8.945107E0,1.962838E1,7.218747E1,2.9870098E0,2.953785E1,2.4867365E0,1.0160739E2,3.9943874E0,1.4999862E0,6.425767E1,6.0266518E1,4.1878345E1,1.992428E1,1.13668236E2,1.7489078E2,4.960963E0,5.243006E0],"tree_param":{"num_deleted":"0","num_feature":"193","num_nodes":"49","size_leaf_vector":"1"}},{"base_weights":[-5.7980246E-3,-6.084894E-1,8.598986E-1,-1.1041487E0,5.7911015E-1,1.5424438E0,6.1936975E-1,-1.1762358E0,1.6076252E0,-1.262884E-1,1.3958122E0,-5.948586E-3,1.5684773E0,2.714689E-1,1.3317679E0,1.4021903E0,-1.2458668E0,-1.6178371E-2,1.7826262E-1,-8.4573567E-1,1.0221146E0,-4.161208E-1,1.4696666E0,1.6881824E0,1.0604991E0,1.2656429E0,-9.588097E-2,5.3375386E-2,1.4380976E0,-5.7493556E-2,1.6275649E-1,-4.6210837E-2,-1.419076E-1,1.4205508E-1,-1.2024051E-1,1.6612259E-1,-2.9641509E-2,1.0057391E-1,-1.3003193E-1,-7.971399E-2,1.5167676E-1,1.6970584E-1,4.9221165E-2,1.6480614E-1,1.6247315E-2,-1.4270084E-1,1.4532173E-1,-3.9869104E-2,1.3707344E-1,-1.2199439E-1,1.2908585E-1,-3.3846732E-2,1.5007998E-1],"categories":[],"categories_nodes":[],"categories_segments":[],"categories_sizes":[],"default_left":[0,0,0,0,0,0,0,0,0,0,0,0,0,0,0,0,0,0,0,0,0,0,0,0,0,0,0,0,0,0,0,0,0,0,0,0,0,0,0,0,0,0,0,0,0,0,0,0,0,0,0,0,0],"id":2,"left_children":[1,3,5,7,9,11,13,15,17,19,21,-1,23,25,27,29,31,-1,-1,33,35,37,39,41,43,45,47,49,51,-1,-1,-1,-1,-1,-1,-1,-1,-1,-1,-1,-1,-1,-1,-1,-1,-1,-1,-1,-1,-1,-1,-1,-1],"loss_changes":[6.841212E2,4.5567712E2,8.7398895E1,1.08574524E2,1.3169098E2,5.913727E0,9.868097E1,9.729498E1,4.7951126E0,1.0282426E2,1.4780151E1,0E0,6.562805E0,9.8637405E1,1.7711792E1,7.3809967E0,6.976306E1,0E0,0E0,6.34798E1,4.0929173E1,7.500697E0,1.2094437E1,3.2687378E-1,1.4974476E1,3.8869102E1,8.843523E1,1.9045195E1,1.3961853E1,0E0,0E0,0E0,0E0,0E0,0E0,0E0,0E0,0E0,0E0,0E0,0E0,0E0,0E0,0E0,0E0,0E0,0E0,0E0,0E0,0E0,0E0,0E0,0E0],"parents":[2147483647,0,0,1,1,2,2,3,3,4,4,5,5,6,6,7,7,8,8,9,9,10,10,12,12,13,13,14,14,15,15,16,16,19,19,20,20,21,21,22,22,23,23,24,24,25,25,26,26,27,27,28,28],"right_children":[2,4,6,8,10,12,14,16,18,20,22,-1,24,26,28,30,32,-1,-1,34,36,38,40,42,44,46,48,50,52,-1,-1,-1,-1,-1,-1,-1,-1,-1,-1,-1,-1,-1,-1,-1,-1,-1,-1,-1,-1,-1,-1,-1,-1],"split_conditions":[1.2133327E-2,9.471058E-2,-5.225143E-1,9.942123E-1,-6.506577E-2,-2.0679593E0,3.761992E-1,-1.3214177E0,-1.2426827E0,-2.5776818E-1,-2.1815832E0,-5.948586E-3,7.42536E-1,-4.5813876E-1,-1.3391232E0,-9.9947953E-1,-2.1318613E-1,-1.6178371E-2,1.7826262E-1,-7.32819E-1,5.1244146E-1,6.489128E-1,-1.9553361E0,3.071534E0,3.6730822E-3,-1.2951555E0,4.9395758E-1,-4.770796E-1,-2.0914989E0,-5.7493556E-2,1.6275649E-1,-4.6210837E-2,-1.419076E-1,1.4205508E-1,-1.2024051E-1,1.6612259E-1,-2.9641509E-2,1.0057391E-1,-1.3003193E-1,-7.971399E-2,1.5167676E-1,1.6970584E-1,4.9221165E-2,1.6480614E-1,1.6247315E-2,-1.4270084E-1,1.4532173E-1,-3.9869104E-2,1.3707344E-1,-1.2199439E-1,1.2908585E-1,-3.3846732E-2,1.5007998E-1],"split_indices":[6,0,160,4,43,7,13,47,1,81,81,0,171,47,27,59,3,0,0,83,23,3,34,8,15,0,110,0,190,0,0,0,0,0,0,0,0,0,0,0,0,0,0,0,0,0,0,0,0,0,0,0,0],"split_type":[0,0,0,0,0,0,0,0,0,0,0,0,0,0,0,0,0,0,0,0,0,0,0,0,0,0,0,0,0,0,0,0,0,0,0,0,0,0,0,0,0,0,0,0,0,0,0,0,0,0,0,0,0],"sum_hessian":[1.3092074E3,7.7202594E2,5.3718146E2,5.447416E2,2.2728436E2,1.3856499E2,3.9861646E2,5.311873E2,1.3554294E1,1.22405846E2,1.0487851E2,2.1953058E0,1.3636967E2,2.68752E2,1.2986444E2,1.3464412E1,5.177229E2,1.2267116E0,1.2327581E1,7.542035E1,4.6985504E1,3.9259334E0,1.00952576E2,1.08482445E2,2.7887234E1,7.185165E1,1.9690038E2,1.0087324E1,1.19777115E2,1.2190572E0,1.2245355E1,9.437067E1,4.233522E2,9.850053E0,6.55703E1,3.1471087E1,1.5514416E1,1.452593E0,2.4733405E0,1.7308078E0,9.922177E1,1.0726738E2,1.2150633E0,1.6352728E1,1.1534505E1,4.249004E0,6.760264E1,1.6380743E2,3.309294E1,4.9786606E0,5.1086636E0,3.933374E0,1.1584374E2],"tree_param":{"num_deleted":"0","num_feature":"193","num_nodes":"53","size_leaf_vector":"1"}},{"base_weights":[-7.5895465E-3,-5.7165265E-1,7.9791105E-1,-1.026321E0,5.2567714E-1,5.3205985E-1,1.3951788E0,4.361231E-1,-1.1591009E0,-1.7376964E-1,1.1767014E0,1.633231E-1,1.1501E0,4.7118258E-1,1.5011826E0,1.4878795E0,-2.9905713E-1,-1.213834E0,1.6135535E-1,1.0257277E0,-8.378148E-1,-5.494482E-1,1.3019348E0,1.230702E0,-1.6226588E-1,-2.6195988E-1,1.3004107E0,-1.0834036E0,1.344711E0,-5.295498E-1,1.5431463E0,-6.451405E-2,1.7024174E-1,1.0095941E-1,-8.906157E-2,-4.0967613E-2,-1.3406421E-1,-3.5438083E-2,1.4659397E-1,-1.2591358E-1,1.4841986E-1,1.1843952E-1,-1.23152316E-1,6.806322E-2,1.4716892E-1,-3.0725136E-2,1.4388366E-1,-4.1280326E-2,1.2408669E-1,-1.5249403E-1,1.26626E-1,5.538536E-2,1.4617945E-1,-1.540713E-1,6.2197734E-2,-1.6219647E-3,1.4940025E-1,-1.2598243E-1,5.324759E-2,1.5779212E-1,8.4023595E-2],"categories":[],"categories_nodes":[],"categories_segments":[],"categories_sizes":[],"default_left":[0,0,0,0,0,0,0,0,0,0,0,0,0,0,0,0,0,0,0,0,0,0,0,0,0,0,0,0,0,0,0,0,0,0,0,0,0,0,0,0,0,0,0,0,0,0,0,0,0,0,0,0,0,0,0,0,0,0,0,0,0],"id":3,"left_children":[1,3,5,7,9,11,13,15,17,19,21,23,25,27,29,31,33,35,-1,37,39,41,43,45,47,49,51,53,55,57,59,-1,-1,-1,-1,-1,-1,-1,-1,-1,-1,-1,-1,-1,-1,-1,-1,-1,-1,-1,-1,-1,-1,-1,-1,-1,-1,-1,-1,-1,-1],"loss_changes":[5.8720935E2,3.797763E2,8.377695E1,1.049317E2,1.0190468E2,8.412258E1,1.5290863E1,3.561806E1,7.6817444E1,8.731222E1,2.574881E1,8.11304E1,2.964746E1,2.6263414E1,1.3264618E1,9.739056E0,2.2270405E1,4.8837097E1,0E0,2.4289822E1,7.075438E1,1.1554031E1,1.0417114E1,1.7903084E1,6.35526E1,2.917722E1,1.4246094E1,6.5154343E0,2.4911308E0,3.5418282E0,2.1785889E0,0E0,0E0,0E0,0E0,0E0,0E0,0E0,0E0,0E0,0E0,0E0,0E0,0E0,0E0,0E0,0E0,0E0,0E0,0E0,0E0,0E0,0E0,0E0,0E0,0E0,0E0,0E0,0E0,0E0,0E0],"parents":[2147483647,0,0,1,1,2,2,3,3,4,4,5,5,6,6,7,7,8,8,9,9,10,10,11,11,12,12,13,13,14,14,15,15,16,16,17,17,19,19,20,20,21,21,22,22,23,23,24,24,25,25,26,26,27,27,28,28,29,29,30,30],"right_children":[2,4,6,8,10,12,14,16,18,20,22,24,26,28,30,32,34,36,-1,38,40,42,44,46,48,50,52,54,56,58,60,-1,-1,-1,-1,-1,-1,-1,-1,-1,-1,-1,-1,-1,-1,-1,-1,-1,-1,-1,-1,-1,-1,-1,-1,-1,-1,-1,-1,-1,-1],"split_conditions":[1.2133327E-2,9.471058E-2,3.213687E-1,-4.895004E-1,-2.1777195E-1,2.4456504E-1,-1.4388713E0,1.0617401E-1,1.1873803E0,-1.6837394E-1,-1.5309794E0,-5.1182497E-1,-1.3946594E0,4.4660458E-1,-2.617133E0,-7.4421006E-1,-3.7240368E-1,-4.7703704E-1,1.6135535E-1,-1.0357594E0,5.6719375E-1,-2.5713593E-1,4.468356E-1,-1.096255E0,5.321364E-1,-4.8782864E-1,2.1484184E-1,2.223992E-1,-1.5388427E0,-7.1252924E-1,1.7567705E0,-6.451405E-2,1.7024174E-1,1.0095941E-1,-8.906157E-2,-4.0967613E-2,-1.3406421E-1,-3.5438083E-2,1.4659397E-1,-1.2591358E-1,1.4841986E-1,1.1843952E-1,-1.23152316E-1,6.806322E-2,1.4716892E-1,-3.0725136E-2,1.4388366E-1,-4.1280326E-2,1.2408669E-1,-1.5249403E-1,1.26626E-1,5.538536E-2,1.4617945E-1,-1.540713E-1,6.2197734E-2,-1.6219647E-3,1.4940025E-1,-1.2598243E-1,5.324759E-2,1.5779212E-1,8.4023595E-2],"split_indices":[6,0,27,26,43,13,36,10,4,23,34,65,27,6,65,50,46,47,0,81,75,47,0,97,110,0,6,182,132,28,151,0,0,0,0,0,0,0,0,0,0,0,0,0,0,0,0,0,0,0,0,0,0,0,0,0,0,0,0,0,0],"split_type":[0,0,0,0,0,0,0,0,0,0,0,0,0,0,0,0,0,0,0,0,0,0,0,0,0,0,0,0,0,0,0,0,0,0,0,0,0,0,0,0,0,0,0,0,0,0,0,0,0,0,0,0,0,0,0,0,0,0,0,0,0],"sum_hessian":[1.2904034E3,7.591137E2,5.312897E2,5.36772E2,2.2234175E2,3.689544E2,1.623353E2,4.4488503E1,4.9228345E2,1.0753813E2,1.1480363E2,2.3187611E2,1.370783E2,1.726731E1,1.45068E2,1.7882206E1,2.6606297E1,4.8330502E2,8.978406E0,3.8125504E1,6.941263E1,7.536551E0,1.07267075E2,5.3548393E1,1.7832771E2,1.3116408E1,1.2396188E2,6.12558E0,1.1141728E1,2.7017946E0,1.423662E2,1.4507873E0,1.6431417E1,8.062871E0,1.8543427E1,6.640786E1,4.168972E2,9.267123E0,2.8858381E1,5.913969E1,1.0272942E1,1.9198385E0,5.6167126E0,2.4093628E1,8.317345E1,6.3262296E0,4.7222164E1,1.5190924E2,2.6418467E1,7.182586E0,5.933822E0,2.2821611E1,1.0114027E2,4.906442E0,1.2191378E0,1.1895188E0,9.95221E0,1.4905856E0,1.2112092E0,1.3446881E2,7.897387E0],"tree_param":{"num_deleted":"0","num_feature":"193","num_nodes":"61","size_leaf_vector":"1"}},{"base_weights":[3.900395E-3,-5.227358E-1,7.551162E-1,-7.927021E-1,9.440047E-1,9.879704E-1,1.814962E-1,-9.1706187E-1,1.5692577E0,1.2982057E0,-7.132244E-1,1.2338741E0,5.219876E-1,-5.8859456E-1,8.229442E-1,-6.043677E-2,-1.1081376E0,2.6127225E-2,1.6138232E-1,4.4195414E-1,1.5480769E-1,-1.4335353E0,1.3639061E-1,1.2927595E0,-5.6627387E-1,-8.583564E-2,1.0868168E0,1.1521745E0,-1.1518385E0,-5.167225E-1,1.1321754E0,-6.26893E-2,8.82229E-2,2.8442904E-2,-1.1826104E-1,1.361163E-1,-8.723375E-2,1.3407563E-2,-1.5631787E-1,8.5815035E-2,1.3993923E-1,1.13229334E-1,-1.4213164E-1,9.026053E-2,-8.142805E-2,1.2390921E-1,-5.7068564E-2,-4.7678474E-2,1.4412081E-1,9.525649E-2,-1.445853E-1,-1.1261922E-1,1.2887235E-1,-7.232589E-2,1.3185571E-1],"categories":[],"categories_nodes":[],"categories_segments":[],"categories_sizes":[],"default_left":[0,0,0,0,0,0,0,0,0,0,0,0,0,0,0,0,0,0,0,0,0,0,0,0,0,0,0,0,0,0,0,0,0,0,0,0,0,0,0,0,0,0,0,0,0,0,0,0,0,0,0,0,0,0,0],"id":4,"left_children":[1,3,5,7,9,11,13,15,17,19,21,23,25,27,29,31,33,-1,-1,35,-1,37,-1,39,41,43,45,47,49,51,53,-1,-1,-1,-1,-1,-1,-1,-1,-1,-1,-1,-1,-1,-1,-1,-1,-1,-1,-1,-1,-1,-1,-1,-1],"loss_changes":[4.9679944E2,2.9306616E2,6.894684E1,1.8473389E2,6.855475E1,4.1509735E1,7.490223E1,9.706711E1,1.4192352E0,1.9700974E1,3.3275715E1,2.6180054E1,4.431491E1,6.902309E1,3.480665E1,5.8909847E1,5.0650635E1,0E0,0E0,2.8880707E1,0E0,3.467575E0,0E0,9.586487E0,1.3663346E1,4.6074287E1,1.757685E1,8.869383E0,3.3962624E1,1.9253841E1,2.4271873E1,0E0,0E0,0E0,0E0,0E0,0E0,0E0,0E0,0E0,0E0,0E0,0E0,0E0,0E0,0E0,0E0,0E0,0E0,0E0,0E0,0E0,0E0,0E0,0E0],"parents":[2147483647,0,0,1,1,2,2,3,3,4,4,5,5,6,6,7,7,8,8,9,9,10,10,11,11,12,12,13,13,14,14,15,15,16,16,19,19,21,21,23,23,24,24,25,25,26,26,27,27,28,28,29,29,30,30],"right_children":[2,4,6,8,10,12,14,16,18,20,22,24,26,28,30,32,34,-1,-1,36,-1,38,-1,40,42,44,46,48,50,52,54,-1,-1,-1,-1,-1,-1,-1,-1,-1,-1,-1,-1,-1,-1,-1,-1,-1,-1,-1,-1,-1,-1,-1,-1],"split_conditions":[1.2133327E-2,7.0716566E-1,5.274215E-1,1.0322112E0,1.2631309E0,4.5905176E-1,-2.1541035E-1,-4.7703704E-1,-9.0283185E-1,9.3605614E-1,-6.671492E-1,2.7953966E0,-1.364566E-1,1.2238334E-1,-1.4449229E0,-2.1889424E-2,-7.669043E-1,2.6127225E-2,1.6138232E-1,6.153104E-1,1.5480769E-1,1.9363342E-1,1.3639061E-1,-7.0795035E-1,8.9452285E-1,-2.9741523E-1,1.8102533E0,-2.1910365E0,-2.6894966E-1,2.2381686E-1,-1.3946594E0,-6.26893E-2,8.82229E-2,2.8442904E-2,-1.1826104E-1,1.361163E-1,-8.723375E-2,1.3407563E-2,-1.5631787E-1,8.5815035E-2,1.3993923E-1,1.13229334E-1,-1.4213164E-1,9.026053E-2,-8.142805E-2,1.2390921E-1,-5.7068564E-2,-4.7678474E-2,1.4412081E-1,9.525649E-2,-1.445853E-1,-1.1261922E-1,1.2887235E-1,-7.232589E-2,1.3185571E-1],"split_indices":[6,0,22,4,171,9,62,47,1,0,34,106,49,120,90,150,55,0,0,14,0,11,0,16,12,72,175,190,162,87,27,0,0,0,0,0,0,0,0,0,0,0,0,0,0,0,0,0,0,0,0,0,0,0,0],"split_type":[0,0,0,0,0,0,0,0,0,0,0,0,0,0,0,0,0,0,0,0,0,0,0,0,0,0,0,0,0,0,0,0,0,0,0,0,0,0,0,0,0,0,0,0,0,0,0,0,0,0,0,0,0,0,0],"sum_hessian":[1.2537596E3,7.372314E2,5.1652826E2,6.2301886E2,1.1421249E2,3.6687668E2,1.4965158E2,5.924381E2,3.0580782E1,9.427883E1,1.9933653E1,2.3906949E2,1.27807205E2,6.804387E1,8.1607704E1,1.0828669E2,4.841514E2,1.2337308E0,2.9347052E1,2.1922873E1,7.235596E1,1.5031019E1,4.9026346E0,2.3176982E2,7.299668E0,6.1969112E1,6.583809E1,1.637854E1,5.1665333E1,1.5178719E1,6.6428986E1,6.785E1,4.043669E1,2.4434353E1,4.5971704E2,1.2879415E1,9.043458E0,1.1455202E0,1.3885499E1,4.744462E1,1.843252E2,2.3356254E0,4.9640427E0,2.619098E1,3.5778133E1,6.0529644E1,5.3084455E0,2.37029E0,1.4008249E1,6.0589123E0,4.560642E1,1.16292305E1,3.5494885E0,5.8008504E0,6.062814E1],"tree_param":{"num_deleted":"0","num_feature":"193","num_nodes":"55","size_leaf_vector":"1"}},{"base_weights":[5.6875716E-3,-6.9195324E-1,5.6122625E-1,-1.0712296E0,1.909084E-1,1.1204524E0,2.167764E-1,8.4151095E-1,-1.1709753E0,6.373827E-1,-5.698139E-1,4.9799183E-1,1.3361808E0,-2.2603728E-1,1.0103271E0,1.5338613E0,-3.6815363E-1,9.0170234E-1,-1.2170936E0,-4.665542E-1,1.0581528E0,1.1050985E0,-8.999729E-1,-3.6396882E-1,1.1970304E0,1.4701947E0,8.3716494E-1,4.003931E-1,-9.586429E-1,1.0733627E-1,1.307431E0,1.649885E-1,2.3134364E-2,1.2072148E-1,-1.2484719E-1,-4.1372895E-2,1.5632564E-1,1.5602525E-1,-1.2384325E-1,-1.4080854E-1,9.070191E-2,-1.1384783E-2,1.3055721E-1,-8.20563E-2,1.5087055E-1,-1.3103098E-1,6.73411E-2,-8.5762024E-2,1.295298E-1,-7.405862E-2,1.2764347E-1,1.48864E-1,-2.8145442E-2,1.2515731E-2,1.4212832E-1,-3.123468E-2,1.1648425E-1,-1.1890712E-1,1.0102444E-1,1.0769025E-1,-1.0272425E-1,7.6382585E-2,1.4242153E-1],"categories":[],"categories_nodes":[],"categories_segments":[],"categories_sizes":[],"default_left":[0,0,0,0,0,0,0,0,0,0,0,0,0,0,0,0,0,0,0,0,0,0,0,0,0,0,0,0,0,0,0,0,0,0,0,0,0,0,0,0,0,0,0,0,0,0,0,0,0,0,0,0,0,0,0,0,0,0,0,0,0,0,0],"id":5,"left_children":[1,3,5,7,9,11,13,15,17,19,21,23,25,27,29,31,33,35,37,39,41,43,45,47,49,51,53,55,57,59,61,-1,-1,-1,-1,-1,-1,-1,-1,-1,-1,-1,-1,-1,-1,-1,-1,-1,-1,-1,-1,-1,-1,-1,-1,-1,-1,-1,-1,-1,-1,-1,-1],"loss_changes":[4.7498434E2,1.8212659E2,1.3117712E2,7.352011E1,5.610235E1,3.422287E1,1.4902463E2,1.68335E1,3.567752E1,4.874986E1,3.4850365E1,4.1687828E1,1.1632568E1,1.254879E2,4.0596375E1,1.5145702E0,1.2431717E1,7.998977E0,2.2930847E1,3.925205E1,2.2048737E1,9.422031E0,3.425654E1,2.6851664E1,6.797577E0,5.2753296E0,1.7723682E1,8.081404E1,5.8341736E1,4.365692E1,6.159683E0,0E0,0E0,0E0,0E0,0E0,0E0,0E0,0E0,0E0,0E0,0E0,0E0,0E0,0E0,0E0,0E0,0E0,0E0,0E0,0E0,0E0,0E0,0E0,0E0,0E0,0E0,0E0,0E0,0E0,0E0,0E0,0E0],"parents":[2147483647,0,0,1,1,2,2,3,3,4,4,5,5,6,6,7,7,8,8,9,9,10,10,11,11,12,12,13,13,14,14,15,15,16,16,17,17,18,18,19,19,20,20,21,21,22,22,23,23,24,24,25,25,26,26,27,27,28,28,29,29,30,30],"right_children":[2,4,6,8,10,12,14,16,18,20,22,24,26,28,30,32,34,36,38,40,42,44,46,48,50,52,54,56,58,60,62,-1,-1,-1,-1,-1,-1,-1,-1,-1,-1,-1,-1,-1,-1,-1,-1,-1,-1,-1,-1,-1,-1,-1,-1,-1,-1,-1,-1,-1,-1,-1,-1],"split_conditions":[-3.9821488E-1,1.9830277E-2,-2.3103411E-1,-5.008403E-1,3.147079E-1,-9.133164E-1,1.3991462E-1,3.45288E-1,-9.395416E-1,-8.165565E-1,-3.683076E-1,-3.6637142E-1,8.852563E-1,4.3888715E-1,-6.072702E-1,-4.4624594E-1,3.334353E-1,-8.8739014E-1,-1.1856264E0,-5.6656605E-1,-5.289363E-1,-1.0566857E0,2.3412159E-1,3.4916285E-1,-2.4897397E0,2.3295932E0,-2.5611454E-1,-2.1806042E-1,4.0358576E-1,2.3701987E-1,-9.624447E-1,1.649885E-1,2.3134364E-2,1.2072148E-1,-1.2484719E-1,-4.1372895E-2,1.5632564E-1,1.5602525E-1,-1.2384325E-1,-1.4080854E-1,9.070191E-2,-1.1384783E-2,1.3055721E-1,-8.20563E-2,1.5087055E-1,-1.3103098E-1,6.73411E-2,-8.5762024E-2,1.295298E-1,-7.405862E-2,1.2764347E-1,1.48864E-1,-2.8145442E-2,1.2515731E-2,1.4212832E-1,-3.123468E-2,1.1648425E-1,-1.1890712E-1,1.0102444E-1,1.0769025E-1,-1.0272425E-1,7.6382585E-2,1.4242153E-1],"split_indices":[0,6,72,26,22,117,13,112,130,112,146,43,55,21,66,0,103,63,155,2,33,38,176,161,172,64,141,49,27,54,119,0,0,0,0,0,0,0,0,0,0,0,0,0,0,0,0,0,0,0,0,0,0,0,0,0,0,0,0,0,0,0,0],"split_type":[0,0,0,0,0,0,0,0,0,0,0,0,0,0,0,0,0,0,0,0,0,0,0,0,0,0,0,0,0,0,0,0,0,0,0,0,0,0,0,0,0,0,0,0,0,0,0,0,0,0,0,0,0,0,0,0,0,0,0,0,0,0,0],"sum_hessian":[1.2235538E3,5.422967E2,6.8125714E2,3.7918564E2,1.6311105E2,2.588128E2,4.2244434E2,1.8425169E1,3.6076047E2,1.02887596E2,6.0223454E1,6.746331E1,1.913495E2,2.7160156E2,1.5084277E2,1.1547795E1,6.877374E0,7.4485965E0,3.5331186E2,2.8363646E1,7.452396E1,9.530024E0,5.0693428E1,3.042572E1,3.7037586E1,1.493062E2,4.204331E1,1.4665472E2,1.2494684E2,3.768071E1,1.13162056E2,1.0358415E1,1.1893802E0,2.3322933E0,4.545081E0,2.6178617E0,4.8307347E0,2.1440058E0,3.5116785E2,1.681351E1,1.1550135E1,1.3084381E1,6.143957E1,1.4723196E0,8.057704E0,4.0340004E1,1.0353427E1,2.3821636E1,6.604085E0,1.1302592E0,3.590733E1,1.4789894E2,1.407259E0,1.9494663E1,2.2548647E1,7.620027E1,7.045445E1,1.1221039E2,1.273645E1,2.0345276E1,1.7335434E1,2.1345213E1,9.181684E1],"tree_param":{"num_deleted":"0","num_feature":"193","num_nodes":"63","size_leaf_vector":"1"}},{"base_weights":[8.801548E-3,-6.1710477E-1,5.1925015E-1,-9.8894805E-1,2.2134143E-1,1.0613103E0,1.7926231E-1,1.0092144E0,-1.0755428E0,6.793075E-1,-4.623392E-1,4.8507467E-1,1.2640854E0,-2.3651753E-1,9.2614836E-1,-5.815815E-1,1.4034338E0,-1.1517015E0,6.8591523E-1,-1.6761486E-1,1.1406394E0,-8.6834234E-1,6.2810457E-1,-1.5318647E-1,1.1569057E0,1.3795815E0,7.155747E-1,-5.2680993E-1,1.0495825E0,7.7438075E-3,1.1827124E0,-1.0710575E-1,2.8862307E-2,1.520705E-1,7.57659E-3,1.5225807E-1,-1.17749386E-1,1.4837374E-1,-1.18726924E-1,-8.40277E-2,1.2551734E-1,-1.6679865E-3,1.3942982E-1,-1.14933036E-1,8.558502E-2,-6.10226E-2,1.1580639E-1,-5.9838455E-2,1.2914877E-1,-3.2157784E-3,1.3449663E-1,1.3918976E-1,9.118852E-3,1.4255999E-1,4.5193895E-3,1.1920228E-1,-7.5956665E-2,6.4933673E-3,1.4102475E-1,8.503806E-2,-1.0809387E-1,6.942618E-2,1.3422062E-1],"categories":[],"categories_nodes":[],"categories_segments":[],"categories_sizes":[],"default_left":[0,0,0,0,0,0,0,0,0,0,0,0,0,0,0,0,0,0,0,0,0,0,0,0,0,0,0,0,0,0,0,0,0,0,0,0,0,0,0,0,0,0,0,0,0,0,0,0,0,0,0,0,0,0,0,0,0,0,0,0,0,0,0],"id":6,"left_children":[1,3,5,7,9,11,13,15,17,19,21,23,25,27,29,31,33,35,37,39,41,43,45,47,49,51,53,55,57,59,61,-1,-1,-1,-1,-1,-1,-1,-1,-1,-1,-1,-1,-1,-1,-1,-1,-1,-1,-1,-1,-1,-1,-1,-1,-1,-1,-1,-1,-1,-1,-1,-1],"loss_changes":[3.773012E2,1.6560735E2,1.1968422E2,6.47056E1,5.160013E1,2.865866E1,1.2472618E2,1.0717434E1,4.8130646E1,3.867523E1,2.9899057E1,2.8834808E1,1.07127075E1,9.7008514E1,3.382309E1,1.9458401E0,1.9004097E0,2.5151031E1,2.4555416E1,3.513075E1,1.877967E1,2.4593971E1,1.289278E1,2.3383358E1,7.3502197E0,2.276825E0,1.621494E1,8.549811E1,1.692271E1,3.0604145E1,7.8108673E0,0E0,0E0,0E0,0E0,0E0,0E0,0E0,0E0,0E0,0E0,0E0,0E0,0E0,0E0,0E0,0E0,0E0,0E0,0E0,0E0,0E0,0E0,0E0,0E0,0E0,0E0,0E0,0E0,0E0,0E0,0E0,0E0],"parents":[2147483647,0,0,1,1,2,2,3,3,4,4,5,5,6,6,7,7,8,8,9,9,10,10,11,11,12,12,13,13,14,14,15,15,16,16,17,17,18,18,19,19,20,20,21,21,22,22,23,23,24,24,25,25,26,26,27,27,28,28,29,29,30,30],"right_children":[2,4,6,8,10,12,14,16,18,20,22,24,26,28,30,32,34,36,38,40,42,44,46,48,50,52,54,56,58,60,62,-1,-1,-1,-1,-1,-1,-1,-1,-1,-1,-1,-1,-1,-1,-1,-1,-1,-1,-1,-1,-1,-1,-1,-1,-1,-1,-1,-1,-1,-1,-1,-1],"split_conditions":[-3.9069217E-1,1.2133327E-2,-2.3786543E-1,-6.171906E-1,1.6307229E-1,-9.133164E-1,1.6164522E-1,-7.1011233E-1,1.0305344E0,-6.307341E-1,1.1273062E-1,-1.5366438E-1,9.890932E-1,7.312561E-1,-7.046808E-1,3.6976952E-2,1.0481434E0,-1.1856264E0,5.281332E-1,1.5802161E-1,-3.8380033E-1,4.2212784E-1,-1.0767286E0,9.3605614E-1,-9.0430325E-1,4.2800994E0,3.2074758E-1,-6.749803E-1,-4.3359542E-1,2.5768536E-1,-6.858282E-1,-1.0710575E-1,2.8862307E-2,1.520705E-1,7.57659E-3,1.5225807E-1,-1.17749386E-1,1.4837374E-1,-1.18726924E-1,-8.40277E-2,1.2551734E-1,-1.6679865E-3,1.3942982E-1,-1.14933036E-1,8.558502E-2,-6.10226E-2,1.1580639E-1,-5.9838455E-2,1.2914877E-1,-3.2157784E-3,1.3449663E-1,1.3918976E-1,9.118852E-3,1.4255999E-1,4.5193895E-3,1.1920228E-1,-7.5956665E-2,6.4933673E-3,1.4102475E-1,8.503806E-2,-1.0809387E-1,6.942618E-2,1.3422062E-1],"split_indices":[0,6,72,26,22,117,13,43,132,112,158,43,55,4,66,72,16,155,47,61,62,67,42,0,61,79,48,69,66,54,119,0,0,0,0,0,0,0,0,0,0,0,0,0,0,0,0,0,0,0,0,0,0,0,0,0,0,0,0,0,0,0,0],"split_type":[0,0,0,0,0,0,0,0,0,0,0,0,0,0,0,0,0,0,0,0,0,0,0,0,0,0,0,0,0,0,0,0,0,0,0,0,0,0,0,0,0,0,0,0,0,0,0,0,0,0,0,0,0,0,0,0,0,0,0,0,0,0,0],"sum_hessian":[1.1789343E3,5.294813E2,6.49453E2,3.666818E2,1.6279956E2,2.495157E2,3.999373E2,1.4788338E1,3.5189343E2,9.749713E1,6.530243E1,6.58315E1,1.836842E2,2.5735507E2,1.4258223E2,2.8425412E0,1.1945797E1,3.3764133E2,1.4252131E1,3.460509E1,6.2892044E1,4.7733555E1,1.7568876E1,3.4155067E1,3.1676432E1,1.5048293E2,3.3201267E1,2.1044482E2,4.691023E1,3.1358957E1,1.1122327E2,1.6715245E0,1.1710167E0,1.084268E1,1.103117E0,2.6709623E0,3.3497037E2,1.0140865E1,4.111266E0,2.3774471E1,1.0830619E1,1.1474381E1,5.1417664E1,4.1331287E1,6.4022646E0,5.2200284E0,1.2348847E1,2.6556944E1,7.5981226E0,4.438956E0,2.7237476E1,1.4897845E2,1.5044718E0,1.5576774E1,1.7624495E1,2.460721E1,1.8583762E2,1.2892512E1,3.4017715E1,1.7800398E1,1.355856E1,2.8695604E1,8.2527664E1],"tree_param":{"num_deleted":"0","num_feature":"193","num_nodes":"63","size_leaf_vector":"1"}},{"base_weights":[5.7799346E-3,-5.3598917E-1,5.063334E-1,-9.073784E-1,1.3404752E-1,1.0400239E0,1.8248402E-1,-9.767296E-1,1.2751002E0,-1.2828362E-1,1.2617033E0,1.3134215E0,4.651571E-1,-2.8585044E-1,8.39381E-1,-1.1469555E0,-2.827071E-1,-4.523162E-2,1.5044002E-1,8.6724895E-1,-5.080118E-1,1.4250082E0,-3.0361295E-1,1.3309398E0,1.2018115E-1,1.2101923E0,-2.0003931E-1,-6.4331686E-1,8.462788E-1,1.0179375E0,-6.320228E-1,-1.2440365E-1,-2.777356E-2,7.824611E-2,-8.2151376E-2,1.1473437E-1,-4.2250928E-2,1.0398201E-1,-7.319166E-2,1.4760049E-1,-2.4295538E-3,-1.4848028E-1,7.642058E-2,9.314239E-2,1.4053828E-1,-6.678788E-2,7.9720296E-2,-8.92146E-2,1.3096264E-1,-9.4036214E-2,1.1504524E-1,5.3180266E-2,-9.2816204E-2,1.1844847E-1,-1.0183799E-1,1.1258055E-1,8.7743666E-4,1.18639246E-1,-1.12422645E-1],"categories":[],"categories_nodes":[],"categories_segments":[],"categories_sizes":[],"default_left":[0,0,0,0,0,0,0,0,0,0,0,0,0,0,0,0,0,0,0,0,0,0,0,0,0,0,0,0,0,0,0,0,0,0,0,0,0,0,0,0,0,0,0,0,0,0,0,0,0,0,0,0,0,0,0,0,0,0,0],"id":7,"left_children":[1,3,5,7,9,11,13,15,17,19,21,23,25,27,29,31,33,-1,-1,35,37,39,41,43,45,47,49,51,53,55,57,-1,-1,-1,-1,-1,-1,-1,-1,-1,-1,-1,-1,-1,-1,-1,-1,-1,-1,-1,-1,-1,-1,-1,-1,-1,-1,-1,-1],"loss_changes":[3.1341028E2,1.3823277E2,1.03632095E2,5.5312347E1,5.896977E1,3.500949E1,1.1562552E2,4.0644318E1,5.2098675E0,6.175195E1,1.0046936E1,3.0392456E0,3.7211025E1,8.945674E1,4.1722954E1,2.3125977E1,4.060483E1,0E0,0E0,1.6795792E1,4.1667965E1,2.5660477E0,6.656051E0,3.1739197E0,2.30038E0,8.553444E0,4.1341038E1,5.6575706E1,3.4727573E1,1.5210403E1,1.7030594E1,0E0,0E0,0E0,0E0,0E0,0E0,0E0,0E0,0E0,0E0,0E0,0E0,0E0,0E0,0E0,0E0,0E0,0E0,0E0,0E0,0E0,0E0,0E0,0E0,0E0,0E0,0E0,0E0],"parents":[2147483647,0,0,1,1,2,2,3,3,4,4,5,5,6,6,7,7,8,8,9,9,10,10,11,11,12,12,13,13,14,14,15,15,16,16,19,19,20,20,21,21,22,22,23,23,24,24,25,25,26,26,27,27,28,28,29,29,30,30],"right_children":[2,4,6,8,10,12,14,16,18,20,22,24,26,28,30,32,34,-1,-1,36,38,40,42,44,46,48,50,52,54,56,58,-1,-1,-1,-1,-1,-1,-1,-1,-1,-1,-1,-1,-1,-1,-1,-1,-1,-1,-1,-1,-1,-1,-1,-1,-1,-1,-1,-1],"split_conditions":[-3.0650342E-1,-3.2429792E-2,-1.01412885E-1,1.3572134E0,7.0365286E-1,4.9827608E-1,-3.228525E-2,1.1209129E-1,8.201319E-2,-3.39081E-1,8.8742745E-1,4.2800994E0,1.0159526E-1,3.103556E-1,1.8542851E0,6.14363E-1,6.423284E-3,-4.523162E-2,1.5044002E-1,8.127581E-1,-4.45725E-1,1.1463722E0,-2.2121023E-1,-1.096255E0,1.9174086E-1,-2.7166927E0,2.78302E-1,-3.702638E-1,7.790111E-1,1.7199624E0,1.22148305E-1,-1.2440365E-1,-2.777356E-2,7.824611E-2,-8.2151376E-2,1.1473437E-1,-4.2250928E-2,1.0398201E-1,-7.319166E-2,1.4760049E-1,-2.4295538E-3,-1.4848028E-1,7.642058E-2,9.314239E-2,1.4053828E-1,-6.678788E-2,7.9720296E-2,-8.92146E-2,1.3096264E-1,-9.4036214E-2,1.1504524E-1,5.3180266E-2,-9.2816204E-2,1.1844847E-1,-1.0183799E-1,1.1258055E-1,8.7743666E-4,1.18639246E-1,-1.12422645E-1],"split_indices":[0,6,80,49,5,21,43,19,43,156,116,79,10,45,10,154,3,0,0,136,146,164,62,97,31,33,13,83,63,3,142,0,0,0,0,0,0,0,0,0,0,0,0,0,0,0,0,0,0,0,0,0,0,0,0,0,0,0,0],"split_type":[0,0,0,0,0,0,0,0,0,0,0,0,0,0,0,0,0,0,0,0,0,0,0,0,0,0,0,0,0,0,0,0,0,0,0,0,0,0,0,0,0,0,0,0,0,0,0,0,0,0,0,0,0,0,0,0,0,0,0],"sum_hessian":[1.1537084E3,5.5401013E2,5.9969824E2,3.5621335E2,1.9779681E2,2.2564047E2,3.7405777E2,3.4577823E2,1.0435102E1,1.6118575E2,3.661106E1,1.5204538E2,7.359509E1,2.187003E2,1.5535745E2,2.7714825E2,6.862999E1,1.108874E0,9.326228E0,4.4151085E1,1.1703467E2,3.3233536E1,3.3775244E0,1.4973172E2,2.3136518E0,3.4327835E1,3.926726E1,1.6654575E2,5.2154552E1,1.3881972E2,1.6537746E1,2.4891621E2,2.823203E1,2.2902256E1,4.5727734E1,3.6364326E1,7.7867594E0,1.4329837E1,1.0270483E2,3.2086098E1,1.1474372E0,1.4182248E0,1.9592994E0,2.5640089E1,1.2409164E2,1.0753908E0,1.2382609E0,1.1902425E0,3.3137592E1,2.5559532E1,1.3707729E1,3.2324615E1,1.3422113E2,4.445603E1,7.6985235E0,1.2530993E2,1.350978E1,3.2224052E0,1.3315341E1],"tree_param":{"num_deleted":"0","num_feature":"193","num_nodes":"59","size_leaf_vector":"1"}},{"base_weights":[2.4575066E-2,-5.434951E-1,4.7675264E-1,-8.8844115E-1,1.5286691E-1,9.6345776E-1,1.8177766E-1,-9.924893E-1,6.607879E-1,1.022193E0,-1.6019653E-1,3.84348E-1,1.164984E0,-1.8797433E-1,8.5722595E-1,1.2316314E-1,-1.067593E0,1.4496064E0,-3.123337E-1,1.2352755E0,-2.71853E-1,-4.2541975E-1,1.0221651E0,-3.9276007E-1,9.6129E-1,5.087883E-1,1.2567453E0,1.1063865E0,-4.42116E-1,-3.963237E-2,1.110911E0,-7.5458996E-2,1.5347289E-1,-2.12929E-2,-1.16941035E-1,1.6129678E-1,-8.122259E-3,1.4513852E-1,-1.0669853E-1,1.3241352E-1,-5.9749927E-2,-1.4642207E-1,8.194077E-2,1.4315866E-1,-5.8407214E-2,-7.035848E-2,1.3137884E-1,-8.325115E-2,1.2836929E-1,1.2106302E-1,-5.674093E-2,1.1008882E-1,-4.852822E-2,7.7110164E-2,1.3150677E-1,4.3718673E-2,1.4069293E-1,-6.411167E-2,1.172416E-1,-1.08197846E-1,7.66176E-2,1.188684E-1,2.15175E-2],"categories":[],"categories_nodes":[],"categories_segments":[],"categories_sizes":[],"default_left":[0,0,0,0,0,0,0,0,0,0,0,0,0,0,0,0,0,0,0,0,0,0,0,0,0,0,0,0,0,0,0,0,0,0,0,0,0,0,0,0,0,0,0,0,0,0,0,0,0,0,0,0,0,0,0,0,0,0,0,0,0,0,0],"id":8,"left_children":[1,3,5,7,9,11,13,15,17,19,21,23,25,27,29,31,33,35,37,39,41,43,45,47,49,51,53,55,57,59,61,-1,-1,-1,-1,-1,-1,-1,-1,-1,-1,-1,-1,-1,-1,-1,-1,-1,-1,-1,-1,-1,-1,-1,-1,-1,-1,-1,-1,-1,-1,-1,-1],"loss_changes":[2.857331E2,1.1856453E2,8.8740204E1,5.3826202E1,4.4844517E1,2.680069E1,9.677756E1,2.6063812E1,1.6848598E1,1.2359192E1,3.855801E1,2.8070415E1,9.760223E0,8.2996864E1,3.1222054E1,2.6454872E1,2.4993286E1,3.125473E0,1.5371394E1,6.9179E0,1.028795E1,3.0298716E1,1.2281979E1,2.099424E1,1.4309345E1,1.3994768E1,3.258438E0,7.72155E0,6.834215E1,2.701845E1,7.1881104E0,0E0,0E0,0E0,0E0,0E0,0E0,0E0,0E0,0E0,0E0,0E0,0E0,0E0,0E0,0E0,0E0,0E0,0E0,0E0,0E0,0E0,0E0,0E0,0E0,0E0,0E0,0E0,0E0,0E0,0E0,0E0,0E0],"parents":[2147483647,0,0,1,1,2,2,3,3,4,4,5,5,6,6,7,7,8,8,9,9,10,10,11,11,12,12,13,13,14,14,15,15,16,16,17,17,18,18,19,19,20,20,21,21,22,22,23,23,24,24,25,25,26,26,27,27,28,28,29,29,30,30],"right_children":[2,4,6,8,10,12,14,16,18,20,22,24,26,28,30,32,34,36,38,40,42,44,46,48,50,52,54,56,58,60,62,-1,-1,-1,-1,-1,-1,-1,-1,-1,-1,-1,-1,-1,-1,-1,-1,-1,-1,-1,-1,-1,-1,-1,-1,-1,-1,-1,-1,-1,-1,-1,-1],"split_conditions":[-3.9069217E-1,-1.2262127E-2,-2.3786543E-1,7.30589E-1,-3.7653622E-1,-9.133164E-1,1.4600505E-1,-7.410031E-1,-7.315925E-2,8.2099104E-1,6.4604145E-1,2.4965094E-1,-1.3548156E0,-5.2615505E-1,-7.046808E-1,1.1111767E-2,-5.315366E-1,1.8925607E-1,-2.3013754E-1,1.9501371E0,-6.6489303E-1,-1.0477815E0,-6.62201E-1,3.0258125E-1,1.5887284E0,6.737575E-1,-6.463373E-1,-4.0508704E-3,1.1542877E0,-6.6531134E-1,9.460228E-1,-7.5458996E-2,1.5347289E-1,-2.12929E-2,-1.16941035E-1,1.6129678E-1,-8.122259E-3,1.4513852E-1,-1.0669853E-1,1.3241352E-1,-5.9749927E-2,-1.4642207E-1,8.194077E-2,1.4315866E-1,-5.8407214E-2,-7.035848E-2,1.3137884E-1,-8.325115E-2,1.2836929E-1,1.2106302E-1,-5.674093E-2,1.1008882E-1,-4.852822E-2,7.7110164E-2,1.3150677E-1,4.3718673E-2,1.4069293E-1,-6.411167E-2,1.172416E-1,-1.08197846E-1,7.66176E-2,1.188684E-1,2.15175E-2],"split_indices":[0,6,72,86,156,117,13,148,105,95,5,0,37,70,66,31,5,57,41,161,43,10,134,140,96,143,61,0,4,115,58,0,0,0,0,0,0,0,0,0,0,0,0,0,0,0,0,0,0,0,0,0,0,0,0,0,0,0,0,0,0,0,0],"split_type":[0,0,0,0,0,0,0,0,0,0,0,0,0,0,0,0,0,0,0,0,0,0,0,0,0,0,0,0,0,0,0,0,0,0,0,0,0,0,0,0,0,0,0,0,0,0,0,0,0,0,0,0,0,0,0,0,0,0,0,0,0,0,0],"sum_hessian":[1.1103619E3,4.92027E2,6.1833496E2,3.2885257E2,1.6317442E2,2.3247981E2,3.8585513E2,3.0849316E2,2.0359417E1,4.260425E1,1.20570175E2,6.076667E1,1.7171315E2,2.498207E2,1.3603444E2,1.9416992E1,2.8907617E2,1.0974098E1,9.385319E0,3.6619724E1,5.984528E0,9.900248E1,2.1567696E1,2.602786E1,3.473881E1,2.1869146E1,1.49844E2,4.045043E1,2.0937025E2,3.0180492E1,1.0585394E2,1.2259252E1,7.1577396E0,3.1101204E1,2.5797498E2,9.867444E0,1.1066545E0,2.5357318E0,6.8495874E0,3.519106E1,1.4286661E0,2.6964636E0,3.2880645E0,7.1609554E0,9.184152E1,2.9135332E0,1.8654163E1,2.101802E1,5.0098414E0,3.0046164E1,4.6926475E0,1.3638294E1,8.230853E0,1.7590563E1,1.3225343E2,1.3297155E1,2.7153278E1,1.869326E2,2.243765E1,1.3009477E1,1.7171015E1,9.7096436E1,8.757509E0],"tree_param":{"num_deleted":"0","num_feature":"193","num_nodes":"63","size_leaf_vector":"1"}},{"base_weights":[5.6948494E-3,-3.7659934E-1,6.0066384E-1,-5.711338E-1,7.67157E-1,1.2139181E0,3.9578184E-1,-6.7238665E-1,1.2391927E0,1.115744E0,-9.231283E-1,-3.679631E-2,1.242831E0,1.8093376E-1,1.1234919E0,6.0618903E-2,-8.421327E-1,1.3095176E0,-3.9783876E-2,2.9015258E-1,1.3252152E0,-1.281853E0,9.5756344E-2,1.277669E0,4.5532826E-1,-8.763543E-2,8.9266735E-1,6.8456835E-1,1.2809925E0,-4.2830374E-2,8.028852E-2,-3.3714116E-2,-1.0408521E-1,2.6744002E-2,1.3371079E-1,1.137702E-1,-6.527934E-2,-1.2878929E-2,1.3568202E-1,6.447833E-3,-1.3854569E-1,1.2951541E-1,2.9792667E-3,-9.7782545E-2,1.1004656E-1,-6.8621136E-2,3.7341755E-2,-6.1811358E-2,1.0055504E-1,1.0149821E-1,-1.885559E-2,1.2422011E-2,1.3225013E-1],"categories":[],"categories_nodes":[],"categories_segments":[],"categories_sizes":[],"default_left":[0,0,0,0,0,0,0,0,0,0,0,0,0,0,0,0,0,0,0,0,0,0,0,0,0,0,0,0,0,0,0,0,0,0,0,0,0,0,0,0,0,0,0,0,0,0,0,0,0,0,0,0,0],"id":9,"left_children":[1,3,5,7,9,11,13,15,17,19,21,-1,23,25,27,29,31,33,-1,35,37,39,-1,41,43,45,47,49,51,-1,-1,-1,-1,-1,-1,-1,-1,-1,-1,-1,-1,-1,-1,-1,-1,-1,-1,-1,-1,-1,-1,-1,-1],"loss_changes":[2.4547166E2,1.4663168E2,5.2563538E1,1.0386911E2,5.755642E1,5.270645E0,4.950492E1,6.636795E1,3.989193E0,1.3448135E1,1.2662389E1,0E0,2.2599182E0,4.72265E1,4.1197433E0,3.7052876E1,4.308496E1,4.7957993E-1,0E0,1.4702661E1,3.0936584E0,2.1344566E0,0E0,2.1136017E0,6.5696926E0,4.9929455E1,1.216119E1,6.31744E0,2.3346481E0,0E0,0E0,0E0,0E0,0E0,0E0,0E0,0E0,0E0,0E0,0E0,0E0,0E0,0E0,0E0,0E0,0E0,0E0,0E0,0E0,0E0,0E0,0E0,0E0],"parents":[2147483647,0,0,1,1,2,2,3,3,4,4,5,5,6,6,7,7,8,8,9,9,10,10,12,12,13,13,14,14,15,15,16,16,17,17,19,19,20,20,21,21,23,23,24,24,25,25,26,26,27,27,28,28],"right_children":[2,4,6,8,10,12,14,16,18,20,22,-1,24,26,28,30,32,34,-1,36,38,40,-1,42,44,46,48,50,52,-1,-1,-1,-1,-1,-1,-1,-1,-1,-1,-1,-1,-1,-1,-1,-1,-1,-1,-1,-1,-1,-1,-1,-1],"split_conditions":[7.5742446E-2,7.7436733E-1,-5.225143E-1,9.942123E-1,2.4622338E0,-2.0679593E0,4.9395758E-1,-4.7703704E-1,1.7372892E0,9.978217E-1,-7.558489E-1,-3.679631E-2,2.219731E0,3.761992E-1,7.1843755E-1,-2.1889424E-2,-2.0415549E-1,-1.2724079E0,-3.9783876E-2,4.589758E-1,-2.479099E0,5.281332E-1,9.5756344E-2,3.2956614E0,-1.2310288E0,-2.2994773E-1,-1.3946594E0,1.9187526E-1,9.367239E-2,-4.2830374E-2,8.028852E-2,-3.3714116E-2,-1.0408521E-1,2.6744002E-2,1.3371079E-1,1.137702E-1,-6.527934E-2,-1.2878929E-2,1.3568202E-1,6.447833E-3,-1.3854569E-1,1.2951541E-1,2.9792667E-3,-9.7782545E-2,1.1004656E-1,-6.8621136E-2,3.7341755E-2,-6.1811358E-2,1.0055504E-1,1.0149821E-1,-1.885559E-2,1.2422011E-2,1.3225013E-1],"split_indices":[6,0,160,4,84,7,110,47,21,0,31,0,112,13,110,150,23,135,0,23,81,47,0,29,3,62,27,98,6,0,0,0,0,0,0,0,0,0,0,0,0,0,0,0,0,0,0,0,0,0,0,0,0],"split_type":[0,0,0,0,0,0,0,0,0,0,0,0,0,0,0,0,0,0,0,0,0,0,0,0,0,0,0,0,0,0,0,0,0,0,0,0,0,0,0,0,0,0,0,0,0,0,0,0,0,0,0,0,0],"sum_hessian":[1.0772239E3,6.560496E2,4.211742E2,5.611139E2,9.493574E1,1.0423935E2,3.1693484E2,5.31988E2,2.9125881E1,7.898632E1,1.5949417E1,1.6605597E0,1.0257879E2,2.4565627E2,7.127857E1,1.00151566E2,4.3183643E2,2.811803E1,1.0078514E0,1.6467585E1,6.2518734E1,1.3661942E1,2.2874753E0,9.763704E1,4.9417505E0,1.7899156E2,6.666472E1,2.0234741E1,5.104383E1,6.063496E1,3.9516605E1,1.2270685E2,3.0912958E2,1.0010698E0,2.711696E1,8.563712E0,7.903872E0,1.2646085E0,6.1254128E1,1.003188E0,1.2658753E1,9.62505E1,1.3865372E0,1.3739266E0,3.567824E0,7.766817E1,1.0132339E2,4.3236055E0,6.234111E1,1.4561722E1,5.67302E0,1.9064779E0,4.9137356E1],"tree_param":{"num_deleted":"0","num_feature":"193","num_nodes":"53","size_leaf_vector":"1"}},{"base_weights":[9.958989E-3,-4.4023582E-1,4.4012395E-1,-9.107676E-1,-6.362296E-2,9.278661E-1,1.5195554E-1,-9.724971E-1,1.1620545E0,1.0141951E0,-2.9487097E-1,1.1433432E0,2.216921E-1,9.04191E-1,-1.960886E-1,-1.0298434E0,1.2792654E0,1.347205E-1,1.0572771E-2,-5.690503E-1,1.3096915E0,6.485411E-3,-1.0786897E0,5.8628756E-1,1.2600511E0,-3.9219663E-1,1.178156E0,1.798336E-1,1.076059E0,-6.0426855E-1,5.5216765E-1,-1.0582323E-1,1.7524837E-1,-1.7192388E-2,1.6621147E-1,-1.375237E-1,8.728367E-2,1.4837879E-1,4.0134724E-2,2.1104714E-2,-1.1682788E-1,-1.2273457E-1,6.7767784E-2,-1.8650344E-2,1.1092498E-1,1.2909068E-1,-1.5925497E-2,-8.697053E-2,1.1770723E-1,1.2629844E-1,-7.8119687E-3,9.282171E-2,-9.076148E-2,1.12021804E-1,-8.932283E-2,1.188905E-1,-7.8789584E-2,1.0324704E-1,-1.4242815E-2],"categories":[],"categories_nodes":[],"categories_segments":[],"categories_sizes":[],"default_left":[0,0,0,0,0,0,0,0,0,0,0,0,0,0,0,0,0,0,0,0,0,0,0,0,0,0,0,0,0,0,0,0,0,0,0,0,0,0,0,0,0,0,0,0,0,0,0,0,0,0,0,0,0,0,0,0,0,0,0],"id":10,"left_children":[1,3,5,7,9,11,13,15,17,19,21,23,25,27,29,31,33,-1,-1,35,37,39,41,43,45,47,49,51,53,55,57,-1,-1,-1,-1,-1,-1,-1,-1,-1,-1,-1,-1,-1,-1,-1,-1,-1,-1,-1,-1,-1,-1,-1,-1,-1,-1,-1,-1],"loss_changes":[1.9850308E2,8.8698555E1,7.353043E1,2.9611557E1,6.990497E1,2.9338425E1,8.675431E1,2.9299759E1,1.2056427E0,2.3930862E1,5.4502846E1,8.932938E0,2.7886873E1,1.28511505E1,6.9635216E1,1.858957E1,3.5235271E0,0E0,0E0,1.1071562E1,6.0568695E0,4.053136E1,1.756137E1,1.137696E1,5.5539856E0,2.2903353E1,2.0711079E0,1.8172523E1,8.347763E0,4.943644E1,2.7040247E1,0E0,0E0,0E0,0E0,0E0,0E0,0E0,0E0,0E0,0E0,0E0,0E0,0E0,0E0,0E0,0E0,0E0,0E0,0E0,0E0,0E0,0E0,0E0,0E0,0E0,0E0,0E0,0E0],"parents":[2147483647,0,0,1,1,2,2,3,3,4,4,5,5,6,6,7,7,8,8,9,9,10,10,11,11,12,12,13,13,14,14,15,15,16,16,19,19,20,20,21,21,22,22,23,23,24,24,25,25,26,26,27,27,28,28,29,29,30,30],"right_children":[2,4,6,8,10,12,14,16,18,20,22,24,26,28,30,32,34,-1,-1,36,38,40,42,44,46,48,50,52,54,56,58,-1,-1,-1,-1,-1,-1,-1,-1,-1,-1,-1,-1,-1,-1,-1,-1,-1,-1,-1,-1,-1,-1,-1,-1,-1,-1,-1,-1],"split_conditions":[-2.7815846E-1,-3.8912702E-1,-1.01412885E-1,1.155431E0,-4.9448675E-1,8.219703E-1,-1.3851187E-1,1.0305344E0,-1.2552622E-1,-6.516041E-1,5.745108E-1,-1.096255E0,2.78302E-1,-4.0508704E-3,-3.228525E-2,9.671006E-1,-8.181489E-2,1.347205E-1,1.0572771E-2,-2.5634044E-1,6.020634E-1,1.1023955E0,1.2141036E0,-4.0771687E-1,4.2800994E0,1.58548E-1,1.9895248E0,4.028846E-1,2.767298E0,-8.874097E-1,3.7530836E-1,-1.0582323E-1,1.7524837E-1,-1.7192388E-2,1.6621147E-1,-1.375237E-1,8.728367E-2,1.4837879E-1,4.0134724E-2,2.1104714E-2,-1.1682788E-1,-1.2273457E-1,6.7767784E-2,-1.8650344E-2,1.1092498E-1,1.2909068E-1,-1.5925497E-2,-8.697053E-2,1.1770723E-1,1.2629844E-1,-7.8119687E-3,9.282171E-2,-9.076148E-2,1.12021804E-1,-8.932283E-2,1.188905E-1,-7.8789584E-2,1.0324704E-1,-1.4242815E-2],"split_indices":[0,6,80,49,15,21,98,132,140,43,26,97,13,0,43,43,187,0,0,149,156,1,44,123,79,37,186,118,171,83,9,0,0,0,0,0,0,0,0,0,0,0,0,0,0,0,0,0,0,0,0,0,0,0,0,0,0,0,0],"split_type":[0,0,0,0,0,0,0,0,0,0,0,0,0,0,0,0,0,0,0,0,0,0,0,0,0,0,0,0,0,0,0,0,0,0,0,0,0,0,0,0,0,0,0,0,0,0,0,0,0,0,0,0,0,0,0,0,0,0,0],"sum_hessian":[1.02301807E3,4.9985977E2,5.2315826E2,2.2159082E2,2.7826895E2,1.9347331E2,3.2968497E2,2.1569807E2,5.8927455E0,4.855843E1,2.2971054E2,1.4776596E2,4.5707355E1,1.0378159E2,2.2590337E2,2.108704E2,4.8276553E0,4.779618E0,1.1131276E0,7.4918694E0,4.1066563E1,1.6663554E2,6.3074986E1,2.6639095E1,1.2112686E2,2.8198574E1,1.7508783E1,2.029449E1,8.348711E1,1.4629219E2,7.9611176E1,2.0935397E2,1.5164382E0,1.1227627E0,3.7048924E0,4.8348417E0,2.6570282E0,3.3929928E1,7.136633E0,1.4262126E2,2.4014294E1,5.843071E1,4.644276E0,1.1011125E1,1.562797E1,1.1863813E2,2.4887302E0,2.1961697E1,6.236877E0,1.6396303E1,1.1124797E0,1.2108105E1,8.186387E0,8.207776E1,1.4093444E0,1.3080706E1,1.3321149E2,4.6778263E1,3.283291E1],"tree_param":{"num_deleted":"0","num_feature":"193","num_nodes":"59","size_leaf_vector":"1"}},{"base_weights":[-1.1429892E-2,-2.6781446E-1,6.92397E-1,-4.2519292E-1,8.8979155E-1,7.9608387E-1,-7.34378E-1,-5.0897825E-1,1.2570231E0,1.2502431E0,-8.2998633E-1,3.847067E-1,1.1011312E0,-1.2140496E0,1.1104369E-1,-7.5211227E-1,1.977195E-2,2.0915164E-2,1.286677E-1,8.257469E-3,1.2667923E-1,9.1553874E-2,-1.1738037E0,-1.0030771E-1,1.0338793E0,1.1829233E0,2.6700276E-1,-2.8324256E-2,-1.2659639E-1,-2.7728213E-2,-1.0432823E-1,1.08807385E-1,-2.8301725E-2,-1.3147643E-1,2.3609553E-2,7.227873E-2,-6.1624058E-2,-3.130354E-3,1.2322165E-1,7.317148E-2,1.2465175E-1,1.0778663E-1,-9.3838535E-2],"categories":[],"categories_nodes":[],"categories_segments":[],"categories_sizes":[],"default_left":[0,0,0,0,0,0,0,0,0,0,0,0,0,0,0,0,0,0,0,0,0,0,0,0,0,0,0,0,0,0,0,0,0,0,0,0,0,0,0,0,0,0,0],"id":11,"left_children":[1,3,5,7,9,11,13,15,17,19,21,23,25,27,-1,29,31,-1,-1,-1,-1,-1,33,35,37,39,41,-1,-1,-1,-1,-1,-1,-1,-1,-1,-1,-1,-1,-1,-1,-1,-1],"loss_changes":[1.7944917E2,1.3316963E2,3.98668E1,9.1173676E1,5.5314484E1,3.0700546E1,1.772736E1,7.8765366E1,6.867943E-1,1.3018951E0,1.0540451E1,3.3838417E1,9.363892E0,3.7436485E-1,0E0,5.772928E1,6.3037563E1,0E0,0E0,0E0,0E0,0E0,3.0163116E0,2.6874903E1,9.736931E0,2.7871246E0,1.4657395E1,0E0,0E0,0E0,0E0,0E0,0E0,0E0,0E0,0E0,0E0,0E0,0E0,0E0,0E0,0E0,0E0],"parents":[2147483647,0,0,1,1,2,2,3,3,4,4,5,5,6,6,7,7,8,8,9,9,10,10,11,11,12,12,13,13,15,15,16,16,22,22,23,23,24,24,25,25,26,26],"right_children":[2,4,6,8,10,12,14,16,18,20,22,24,26,28,-1,30,32,-1,-1,-1,-1,-1,34,36,38,40,42,-1,-1,-1,-1,-1,-1,-1,-1,-1,-1,-1,-1,-1,-1,-1,-1],"split_conditions":[4.4660458E-1,9.038437E-1,2.456348E0,1.2755994E0,2.4622338E0,-2.0680718E-1,-5.2578515E-1,2.4368589E-1,-1.1318426E0,-2.7042363E0,-3.1797913E-1,8.065474E-2,1.4985703E0,1.4505552E0,1.1104369E-1,-5.2450027E-2,-3.388481E-1,2.0915164E-2,1.286677E-1,8.257469E-3,1.2667923E-1,9.1553874E-2,1.9214736E0,8.178789E-2,-4.3580225E-1,5.5827874E-1,1.9136567E-1,-2.8324256E-2,-1.2659639E-1,-2.7728213E-2,-1.0432823E-1,1.08807385E-1,-2.8301725E-2,-1.3147643E-1,2.3609553E-2,7.227873E-2,-6.1624058E-2,-3.130354E-3,1.2322165E-1,7.317148E-2,1.2465175E-1,1.0778663E-1,-9.3838535E-2],"split_indices":[6,0,21,4,84,0,111,43,13,9,140,5,59,71,0,23,15,0,0,0,0,0,0,153,4,6,12,0,0,0,0,0,0,0,0,0,0,0,0,0,0,0,0],"split_type":[0,0,0,0,0,0,0,0,0,0,0,0,0,0,0,0,0,0,0,0,0,0,0,0,0,0,0,0,0,0,0,0,0,0,0,0,0,0,0,0,0,0,0],"sum_hessian":[9.924242E2,7.2789264E2,2.645316E2,6.413348E2,8.655784E1,2.4702197E2,1.7509592E1,6.1157196E2,2.9762829E1,7.178525E1,1.4772586E1,1.061426E2,1.4087938E2,1.4167741E1,3.3418512E0,4.1864496E2,1.9292702E2,1.0407066E0,2.8722122E1,1.0868937E0,7.069836E1,2.157306E0,1.261528E1,6.1236576E1,4.4906025E1,1.27917984E2,1.2961394E1,1.0894902E0,1.3078251E1,1.5987634E2,2.5876862E2,4.2032898E1,1.5089412E2,1.1529997E1,1.0852834E0,2.344022E1,3.7796356E1,7.181186E0,3.772484E1,1.7346752E1,1.1057123E2,7.812037E0,5.149358E0],"tree_param":{"num_deleted":"0","num_feature":"193","num_nodes":"43","size_leaf_vector":"1"}},{"base_weights":[1.9388702E-2,-4.4122738E-1,3.7835133E-1,-8.6291325E-1,-7.603499E-2,9.8006207E-1,1.615943E-1,-9.2229354E-1,1.3928793E-1,1.0600308E0,-3.1804776E-1,3.6577037E-1,1.2082233E0,4.0130025E-1,-5.5842125E-1,-9.815612E-1,1.3302612E0,1.1256201E-1,1.3522673E0,8.094977E-1,-5.40777E-1,-1.4127302E-1,1.2014975E-1,2.0108141E-1,1.2335252E0,-5.059517E-1,6.2191874E-1,-1.0336958E0,6.23674E-1,-1.0241046E-1,1.5603606E-1,1.6152652E-1,7.333877E-3,1.1665522E-1,-7.143741E-2,-1.1739913E-2,1.4062041E-1,-5.6559514E-2,1.14119604E-1,-1.0662877E-1,-2.4914509E-2,3.484082E-2,-1.2299694E-1,-7.29877E-2,8.2601674E-2,2.0495197E-2,1.24202184E-1,-8.777894E-2,9.4602674E-2,7.436391E-2,-6.329584E-2,-1.17211185E-1,9.27528E-2,1.272758E-1,-2.2797843E-2],"categories":[],"categories_nodes":[],"categories_segments":[],"categories_sizes":[],"default_left":[0,0,0,0,0,0,0,0,0,0,0,0,0,0,0,0,0,0,0,0,0,0,0,0,0,0,0,0,0,0,0,0,0,0,0,0,0,0,0,0,0,0,0,0,0,0,0,0,0,0,0,0,0,0,0],"id":12,"left_children":[1,3,5,7,9,11,13,15,-1,17,19,21,23,25,27,29,31,33,35,37,39,41,-1,43,45,47,49,51,53,-1,-1,-1,-1,-1,-1,-1,-1,-1,-1,-1,-1,-1,-1,-1,-1,-1,-1,-1,-1,-1,-1,-1,-1,-1,-1],"loss_changes":[1.5970721E2,6.508605E1,7.063985E1,2.7572586E1,6.2974518E1,1.9679214E1,6.930682E1,2.6914474E1,0E0,1.0989536E1,4.7797337E1,1.7253103E1,2.408432E0,6.0536743E1,5.704638E1,2.1872269E1,1.7952785E0,1.0051657E1,2.595726E0,1.501631E1,2.3959969E1,1.4282186E1,0E0,2.7843044E0,6.324768E-1,3.2902878E1,3.7506668E1,2.0626862E1,1.6549084E1,0E0,0E0,0E0,0E0,0E0,0E0,0E0,0E0,0E0,0E0,0E0,0E0,0E0,0E0,0E0,0E0,0E0,0E0,0E0,0E0,0E0,0E0,0E0,0E0,0E0,0E0],"parents":[2147483647,0,0,1,1,2,2,3,3,4,4,5,5,6,6,7,7,9,9,10,10,11,11,12,12,13,13,14,14,15,15,16,16,17,17,18,18,19,19,20,20,21,21,23,23,24,24,25,25,26,26,27,27,28,28],"right_children":[2,4,6,8,10,12,14,16,-1,18,20,22,24,26,28,30,32,34,36,38,40,42,-1,44,46,48,50,52,54,-1,-1,-1,-1,-1,-1,-1,-1,-1,-1,-1,-1,-1,-1,-1,-1,-1,-1,-1,-1,-1,-1,-1,-1,-1,-1],"split_conditions":[-4.0428844E-1,-3.5519797E-1,-5.5499494E-1,9.6609366E-1,-4.9448675E-1,-5.0724703E-1,7.218968E-1,9.973647E-1,1.3928793E-1,-4.3134755E-1,-4.9152595E-1,7.0716566E-1,-2.3755395E0,-9.0283185E-1,-5.1031464E-1,9.671006E-1,7.003806E-1,-4.3438962E-1,-1.3174386E0,-7.679064E-1,-4.3264613E-1,9.987875E-1,1.2014975E-1,-1.0196495E-1,-2.5819607E0,1.1065773E-1,2.140634E0,6.4791626E-1,4.2831284E-1,-1.0241046E-1,1.5603606E-1,1.6152652E-1,7.333877E-3,1.1665522E-1,-7.143741E-2,-1.1739913E-2,1.4062041E-1,-5.6559514E-2,1.14119604E-1,-1.0662877E-1,-2.4914509E-2,3.484082E-2,-1.2299694E-1,-7.29877E-2,8.2601674E-2,2.0495197E-2,1.24202184E-1,-8.777894E-2,9.4602674E-2,7.436391E-2,-6.329584E-2,-1.17211185E-1,9.27528E-2,1.272758E-1,-2.2797843E-2],"split_indices":[0,6,47,58,15,6,3,132,0,49,156,0,23,1,2,43,126,161,2,61,131,16,0,184,21,43,10,33,84,0,0,0,0,0,0,0,0,0,0,0,0,0,0,0,0,0,0,0,0,0,0,0,0,0,0],"split_type":[0,0,0,0,0,0,0,0,0,0,0,0,0,0,0,0,0,0,0,0,0,0,0,0,0,0,0,0,0,0,0,0,0,0,0,0,0,0,0,0,0,0,0,0,0,0,0,0,0,0,0,0,0,0,0],"sum_hessian":[9.6389935E2,4.2207245E2,5.418269E2,1.9525247E2,2.2681998E2,1.425609E2,3.9926605E2,1.9082056E2,4.4319153E0,3.9239643E1,1.8758032E2,3.931473E1,1.0324616E2,2.9987497E2,9.939105E1,1.8647832E2,4.3422422E0,9.576512E0,2.966313E1,3.0507023E1,1.570733E2,2.498628E1,1.4328451E1,2.7494946E0,1.00496666E2,5.8404427E1,2.4147055E2,7.097878E1,2.8412275E1,1.8399594E2,2.4823759E0,3.307239E0,1.0350032E0,4.029689E0,5.5468235E0,1.0084463E0,2.8654684E1,5.791704E0,2.4715319E1,5.5110268E1,1.01963036E2,1.770347E1,7.28281E0,1.0369054E0,1.7125891E0,1.0291811E0,9.946748E1,4.6811825E1,1.1592604E1,2.2049081E2,2.0979738E1,6.667543E1,4.3033514E0,1.5843074E1,1.25692005E1],"tree_param":{"num_deleted":"0","num_feature":"193","num_nodes":"55","size_leaf_vector":"1"}},{"base_weights":[5.778277E-3,-4.119545E-1,3.4420466E-1,-6.8633056E-1,1.2229772E-1,8.131503E-1,7.3603764E-2,6.8312025E-1,-7.887436E-1,-5.644417E-1,4.1183805E-1,4.6677417E-1,1.1258899E0,-2.1793887E-1,7.4844646E-1,1.2513298E0,-1.8367645E-1,-1.9898587E-1,-9.8047763E-1,-1.1330018E0,3.666673E-1,-3.728286E-1,7.10045E-1,9.043597E-2,1.1164879E0,1.1998097E0,2.0017289E-1,1.038554E0,-4.1081464E-1,-1.3442077E-1,9.838364E-1,1.3883173E-1,-6.07792E-4,7.868765E-2,-9.154936E-2,-4.906718E-2,1.6459563E-1,-1.0137912E-1,1.1696332E-1,7.929411E-2,-1.2903206E-1,8.220773E-2,-1.07889645E-1,1.1118869E-1,-8.627046E-2,1.11168064E-1,-3.195182E-2,9.0865865E-2,-3.3810936E-2,-1.5257381E-2,1.20991185E-1,2.4399055E-2,1.250142E-1,-8.564739E-2,1.04246475E-1,3.9686743E-2,1.2812677E-1,-5.6894775E-2,1.2145378E-1,-9.532332E-2,7.911275E-2,1.129325E-1,4.0483586E-2],"categories":[],"categories_nodes":[],"categories_segments":[],"categories_sizes":[],"default_left":[0,0,0,0,0,0,0,0,0,0,0,0,0,0,0,0,0,0,0,0,0,0,0,0,0,0,0,0,0,0,0,0,0,0,0,0,0,0,0,0,0,0,0,0,0,0,0,0,0,0,0,0,0,0,0,0,0,0,0,0,0,0,0],"id":13,"left_children":[1,3,5,7,9,11,13,15,17,19,21,23,25,27,29,31,33,35,37,39,41,43,45,47,49,51,53,55,57,59,61,-1,-1,-1,-1,-1,-1,-1,-1,-1,-1,-1,-1,-1,-1,-1,-1,-1,-1,-1,-1,-1,-1,-1,-1,-1,-1,-1,-1,-1,-1,-1,-1],"loss_changes":[1.3195996E2,6.1323128E1,6.537492E1,3.9271164E1,2.8587345E1,1.9902275E1,6.471017E1,9.958009E0,2.8912598E1,2.302796E1,2.387187E1,2.219497E1,6.492737E0,5.6135918E1,2.074783E1,2.0855541E0,6.8947086E0,3.5469402E1,1.508194E1,9.1325E0,1.2045176E1,2.164351E1,3.0727219E1,2.0935114E1,4.1394424E0,4.068878E0,8.4365835E0,4.300022E0,5.2095367E1,1.7245808E1,6.150345E0,0E0,0E0,0E0,0E0,0E0,0E0,0E0,0E0,0E0,0E0,0E0,0E0,0E0,0E0,0E0,0E0,0E0,0E0,0E0,0E0,0E0,0E0,0E0,0E0,0E0,0E0,0E0,0E0,0E0,0E0,0E0,0E0],"parents":[2147483647,0,0,1,1,2,2,3,3,4,4,5,5,6,6,7,7,8,8,9,9,10,10,11,11,12,12,13,13,14,14,15,15,16,16,17,17,18,18,19,19,20,20,21,21,22,22,23,23,24,24,25,25,26,26,27,27,28,28,29,29,30,30],"right_children":[2,4,6,8,10,12,14,16,18,20,22,24,26,28,30,32,34,36,38,40,42,44,46,48,50,52,54,56,58,60,62,-1,-1,-1,-1,-1,-1,-1,-1,-1,-1,-1,-1,-1,-1,-1,-1,-1,-1,-1,-1,-1,-1,-1,-1,-1,-1,-1,-1,-1,-1,-1,-1],"split_conditions":[-3.9069217E-1,4.167487E-3,-2.3103411E-1,-4.6323523E-1,-4.6994704E-1,-2.0613466E-1,2.4456504E-1,2.0160139E-1,-2.465225E-1,-2.4101622E-1,-4.726001E-1,4.3065228E-2,2.527977E0,-5.8930904E-1,-7.778561E-1,4.9261695E-1,3.334353E-1,5.549589E-1,1.5667727E0,-6.27747E-1,1.2256308E0,1.5224052E-2,3.2861304E-1,-4.9247545E-1,-1.0864248E0,-1.5096256E0,-3.3728784E-1,-6.012566E-1,1.0434495E0,-5.6786686E-1,5.3244877E-1,1.3883173E-1,-6.07792E-4,7.868765E-2,-9.154936E-2,-4.906718E-2,1.6459563E-1,-1.0137912E-1,1.1696332E-1,7.929411E-2,-1.2903206E-1,8.220773E-2,-1.07889645E-1,1.1118869E-1,-8.627046E-2,1.11168064E-1,-3.195182E-2,9.0865865E-2,-3.3810936E-2,-1.5257381E-2,1.20991185E-1,2.4399055E-2,1.250142E-1,-8.564739E-2,1.04246475E-1,3.9686743E-2,1.2812677E-1,-5.6894775E-2,1.2145378E-1,-9.532332E-2,7.911275E-2,1.129325E-1,4.0483586E-2],"split_indices":[0,6,72,26,176,49,13,112,65,70,33,37,19,70,66,18,103,150,99,15,15,140,3,46,16,75,151,64,5,85,58,0,0,0,0,0,0,0,0,0,0,0,0,0,0,0,0,0,0,0,0,0,0,0,0,0,0,0,0,0,0,0,0],"split_type":[0,0,0,0,0,0,0,0,0,0,0,0,0,0,0,0,0,0,0,0,0,0,0,0,0,0,0,0,0,0,0,0,0,0,0,0,0,0,0,0,0,0,0,0,0,0,0,0,0,0,0,0,0,0,0,0,0,0,0,0,0,0,0],"sum_hessian":[9.314219E2,4.167697E2,5.1465216E2,2.751673E2,1.416024E2,1.8757819E2,3.27074E2,1.8751743E1,2.5641556E2,4.171418E1,9.988823E1,9.018543E1,9.739276E1,2.2887392E2,9.820007E1,1.1058779E1,7.692964E0,6.34099E1,1.9300565E2,2.5764719E1,1.5949461E1,2.7438787E1,7.244944E1,5.7828327E1,3.235711E1,8.9916695E1,7.476065E0,2.9874083E1,1.9899983E2,2.0761127E1,7.743894E1,9.878464E0,1.1803151E0,3.274719E0,4.4182453E0,5.538721E1,8.02269E0,1.9058131E2,2.4243448E0,1.6405282E0,2.4124191E1,1.2456484E1,3.4929774E0,6.492275E0,2.0946512E1,5.206066E1,2.0388779E1,1.9491955E1,3.8336372E1,2.1752717E0,3.0181837E1,4.7905684E0,8.512612E1,3.3086097E0,4.1674557E0,8.921787E0,2.0952295E1,1.819478E2,1.7052032E1,1.0999869E1,9.761257E0,6.1128403E1,1.6310541E1],"tree_param":{"num_deleted":"0","num_feature":"193","num_nodes":"63","size_leaf_vector":"1"}},{"base_weights":[2.3317084E-2,-1.860634E-1,6.5872645E-1,2.4192739E-1,-5.4131025E-1,1.6037089E-1,9.8998517E-1,-1.430714E-1,6.7229605E-1,-7.199741E-1,4.6513337E-1,-1.5714598E-1,1.1686887E0,1.1651958E0,6.1197346E-1,4.1958815E-1,-7.3636395E-1,9.0836935E-2,9.779041E-1,7.490878E-1,-8.016691E-1,8.565861E-1,-8.61032E-1,6.947562E-1,-6.878393E-1,5.553543E-3,1.2328073E-1,1.200197E0,-4.7879867E-2,9.0132433E-1,-2.8460997E-1,-4.158571E-2,1.0423131E-1,-8.697953E-2,1.1020567E-1,8.794007E-2,-4.604672E-2,1.0627041E-1,-3.636632E-2,-7.973343E-2,1.2263385E-1,-8.899564E-2,4.314582E-2,-6.1191604E-3,1.18257575E-1,-1.20353535E-1,8.545484E-2,-3.4159925E-2,1.0947328E-1,7.771825E-2,-9.662177E-2,8.341673E-3,1.2200842E-1,-5.4014772E-2,1.0128087E-1,8.0241054E-2,-1.3864383E-1],"categories":[],"categories_nodes":[],"categories_segments":[],"categories_sizes":[],"default_left":[0,0,0,0,0,0,0,0,0,0,0,0,0,0,0,0,0,0,0,0,0,0,0,0,0,0,0,0,0,0,0,0,0,0,0,0,0,0,0,0,0,0,0,0,0,0,0,0,0,0,0,0,0,0,0,0,0],"id":14,"left_children":[1,3,5,7,9,11,13,15,17,19,21,23,25,27,29,31,33,35,37,39,41,43,45,47,49,-1,-1,51,-1,53,55,-1,-1,-1,-1,-1,-1,-1,-1,-1,-1,-1,-1,-1,-1,-1,-1,-1,-1,-1,-1,-1,-1,-1,-1,-1,-1],"loss_changes":[1.2032531E2,1.0357184E2,3.6844986E1,5.1339325E1,6.723936E1,2.9220299E1,8.192139E0,5.5076836E1,2.5891663E1,3.8570084E1,3.0172504E1,3.2059803E1,1.4902325E0,5.79747E0,1.1850195E1,4.457298E1,2.0636955E1,2.278195E1,1.1277527E1,1.3659931E1,3.3065475E1,1.3320152E1,8.914538E0,1.1694863E1,1.8509989E1,0E0,0E0,1.878418E0,0E0,6.0150757E0,1.5082103E1,0E0,0E0,0E0,0E0,0E0,0E0,0E0,0E0,0E0,0E0,0E0,0E0,0E0,0E0,0E0,0E0,0E0,0E0,0E0,0E0,0E0,0E0,0E0,0E0,0E0,0E0],"parents":[2147483647,0,0,1,1,2,2,3,3,4,4,5,5,6,6,7,7,8,8,9,9,10,10,11,11,12,12,13,13,14,14,15,15,16,16,17,17,18,18,19,19,20,20,21,21,22,22,23,23,24,24,27,27,29,29,30,30],"right_children":[2,4,6,8,10,12,14,16,18,20,22,24,26,28,30,32,34,36,38,40,42,44,46,48,50,-1,-1,52,-1,54,56,-1,-1,-1,-1,-1,-1,-1,-1,-1,-1,-1,-1,-1,-1,-1,-1,-1,-1,-1,-1,-1,-1,-1,-1,-1,-1],"split_conditions":[4.644178E-1,6.423284E-3,-5.1366305E-1,-2.9047532E-3,5.0417066E-1,3.3519465E-1,5.4556096E-1,1.2856096E-1,-2.6535314E-1,-1.1026345E0,1.9299235E0,-5.780536E-2,5.0246745E-1,2.3822162E0,7.4405825E-1,-3.5158658E-1,1.0500652E0,-1.8042153E-1,1.4663713E0,-1.3902646E0,9.335826E-1,-1.0349733E0,-4.8323205E-1,-6.2043715E-1,-1.728035E-1,5.553543E-3,1.2328073E-1,-2.241412E0,-4.7879867E-2,-2.3527431E0,6.514646E-1,-4.158571E-2,1.0423131E-1,-8.697953E-2,1.1020567E-1,8.794007E-2,-4.604672E-2,1.0627041E-1,-3.636632E-2,-7.973343E-2,1.2263385E-1,-8.899564E-2,4.314582E-2,-6.1191604E-3,1.18257575E-1,-1.20353535E-1,8.545484E-2,-3.4159925E-2,1.0947328E-1,7.771825E-2,-9.662177E-2,8.341673E-3,1.2200842E-1,-5.4014772E-2,1.0128087E-1,8.0241054E-2,-1.3864383E-1],"split_indices":[6,3,20,43,0,81,18,23,50,47,171,72,6,12,86,45,0,10,21,28,18,100,2,75,18,0,0,118,0,162,170,0,0,0,0,0,0,0,0,0,0,0,0,0,0,0,0,0,0,0,0,0,0,0,0,0,0],"split_type":[0,0,0,0,0,0,0,0,0,0,0,0,0,0,0,0,0,0,0,0,0,0,0,0,0,0,0,0,0,0,0,0,0,0,0,0,0,0,0,0,0,0,0,0,0,0,0,0,0,0,0,0,0,0,0,0,0],"sum_hessian":[9.0249255E2,6.793424E2,2.2315015E2,3.082686E2,3.710738E2,8.9694756E1,1.3345538E2,1.6306322E2,1.4520538E2,3.1537338E2,5.5700424E1,6.885624E1,2.0838516E1,8.976591E1,4.3689472E1,8.384248E1,7.922073E1,5.0472363E1,9.473302E1,1.6183735E1,2.9918964E2,4.327944E1,1.2420983E1,2.6311012E1,4.254523E1,1.2365783E0,1.9601938E1,8.815893E1,1.6069796E0,3.302587E1,1.0663601E1,3.5947575E1,4.7894913E1,7.435124E1,4.8694873E0,2.0522566E1,2.9949799E1,8.929648E1,5.4365363E0,3.6585045E0,1.2525231E1,2.7945966E2,1.9729982E1,1.155638E1,3.1723063E1,1.0602698E1,1.8182849E0,7.3674936E0,1.8943518E1,6.5073214E0,3.603791E1,1.6333133E0,8.652561E1,2.0948465E0,3.0931026E1,5.5046625E0,5.158938E0],"tree_param":{"num_deleted":"0","num_feature":"193","num_nodes":"57","size_leaf_vector":"1"}},{"base_weights":[8.347821E-3,-1.1628052E-1,1.0009457E0,-2.0774654E-1,1.1459632E0,1.1960553E0,-1.4841668E-1,-6.123987E-1,9.366166E-2,1.179165E0,-2.151185E-2,1.2055216E-1,2.9311797E-2,9.2301536E-1,-1.0499935E0,-7.244905E-1,4.7668627E-1,1.0268596E0,-3.182587E-2,1.209782E0,-4.020153E-3,-5.2656787E-3,1.0891143E-1,-1.1877765E-1,-2.6444353E-3,3.5708938E-3,-8.500016E-2,-5.5322584E-2,1.15469314E-1,-9.230032E-2,1.2376964E-1,-1.5992261E-2,1.05037466E-1,2.9216845E-2,1.22323886E-1],"categories":[],"categories_nodes":[],"categories_segments":[],"categories_sizes":[],"default_left":[0,0,0,0,0,0,0,0,0,0,0,0,0,0,0,0,0,0,0,0,0,0,0,0,0,0,0,0,0,0,0,0,0,0,0],"id":15,"left_children":[1,3,5,7,9,11,13,15,17,19,-1,-1,-1,21,23,25,27,29,31,33,-1,-1,-1,-1,-1,-1,-1,-1,-1,-1,-1,-1,-1,-1,-1],"loss_changes":[1.06890854E2,8.887599E1,2.1792633E1,8.747204E1,2.604805E0,3.5189056E-1,1.53404045E1,3.7712074E1,4.8236107E1,1.9505005E0,0E0,0E0,0E0,1.2453136E0,1.1739397E0,2.6547928E1,2.1005726E1,2.1212757E1,5.0601078E1,2.5665283E-1,0E0,0E0,0E0,0E0,0E0,0E0,0E0,0E0,0E0,0E0,0E0,0E0,0E0,0E0,0E0],"parents":[2147483647,0,0,1,1,2,2,3,3,4,4,5,5,6,6,7,7,8,8,9,9,13,13,14,14,15,15,16,16,17,17,18,18,19,19],"right_children":[2,4,6,8,10,12,14,16,18,20,-1,-1,-1,22,24,26,28,30,32,34,-1,-1,-1,-1,-1,-1,-1,-1,-1,-1,-1,-1,-1,-1,-1],"split_conditions":[1.1208295E0,1.1542877E0,2.0802045E0,-3.2949832E-1,2.7374117E0,4.2249346E0,1.9299235E0,6.755489E-1,-8.4325105E-1,2.1910458E0,-2.151185E-2,1.2055216E-1,2.9311797E-2,-1.0406559E0,-1.4615941E0,-5.883632E-1,-4.232426E-1,-2.2529662E0,1.0837928E0,-2.23449E0,-4.020153E-3,-5.2656787E-3,1.0891143E-1,-1.1877765E-1,-2.6444353E-3,3.5708938E-3,-8.500016E-2,-5.5322584E-2,1.15469314E-1,-9.230032E-2,1.2376964E-1,-1.5992261E-2,1.05037466E-1,2.9216845E-2,1.22323886E-1],"split_indices":[0,4,84,6,190,135,171,167,146,7,0,0,0,77,33,105,49,24,5,170,0,0,0,0,0,0,0,0,0,0,0,0,0,0,0],"split_type":[0,0,0,0,0,0,0,0,0,0,0,0,0,0,0,0,0,0,0,0,0,0,0,0,0,0,0,0,0,0,0,0,0,0,0],"sum_hessian":[8.62132E2,7.667442E2,9.538781E1,7.157166E2,5.102759E1,8.1510414E1,1.3877398E1,3.050899E2,4.1062674E2,4.9942955E1,1.0846385E0,8.033311E1,1.1773096E0,6.330484E0,7.5469136E0,2.7692294E2,2.8166958E1,4.7820778E1,3.6280597E2,4.8727325E1,1.2156293E0,1.0202821E0,5.310202E0,6.5101185E0,1.036795E0,3.9343204E1,2.3757973E2,1.1254732E1,1.6912226E1,4.336658E0,4.348412E1,3.2516895E2,3.763702E1,1.0325087E0,4.7694817E1],"tree_param":{"num_deleted":"0","num_feature":"193","num_nodes":"35","size_leaf_vector":"1"}},{"base_weights":[1.4574012E-2,-2.4493897E-1,4.39784E-1,3.0397904E-1,-4.7993964E-1,2.5069606E-1,1.0636892E0,-5.638852E-1,5.9306276E-1,1.5061533E-1,-6.8671465E-1,9.061176E-1,4.6333005E-3,7.023935E-1,1.1698787E0,1.0223764E0,-8.2130826E-1,8.4091073E-1,-5.577986E-1,8.816062E-1,-2.815647E-1,1.0415444E0,-7.7256876E-1,-4.6236467E-2,9.518694E-1,-1.6987406E-1,9.866732E-1,8.658844E-1,-3.9342025E-1,1.8884618E-2,1.1909547E-1,-2.1987554E-2,1.3393268E-1,-1.0107509E-1,8.282531E-2,6.3921383E-4,1.0119126E-1,8.7410465E-2,-9.977929E-2,1.2938792E-1,-2.0690296E-2,-6.987407E-2,7.7952474E-2,1.12355486E-1,4.8200893E-3,-8.613039E-2,1.5009849E-2,-4.8246413E-2,9.934079E-2,-3.392371E-2,1.06539324E-1,1.11875534E-1,-7.634044E-2,1.051471E-1,-7.556872E-3,3.238808E-2,-8.8320106E-2],"categories":[],"categories_nodes":[],"categories_segments":[],"categories_sizes":[],"default_left":[0,0,0,0,0,0,0,0,0,0,0,0,0,0,0,0,0,0,0,0,0,0,0,0,0,0,0,0,0,0,0,0,0,0,0,0,0,0,0,0,0,0,0,0,0,0,0,0,0,0,0,0,0,0,0,0,0],"id":16,"left_children":[1,3,5,7,9,11,13,15,17,19,21,23,25,27,29,31,33,35,37,39,41,43,45,-1,47,49,51,53,55,-1,-1,-1,-1,-1,-1,-1,-1,-1,-1,-1,-1,-1,-1,-1,-1,-1,-1,-1,-1,-1,-1,-1,-1,-1,-1,-1,-1],"loss_changes":[9.227703E1,6.713841E1,3.712208E1,3.9547215E1,4.756806E1,3.943125E1,1.994461E0,1.6996206E1,3.405058E1,2.89079E1,4.150801E1,4.6186256E0,3.0806578E1,3.7761517E0,9.169769E-1,2.645021E0,1.1648451E1,1.38741455E1,1.4394435E1,1.5502632E1,2.611699E1,1.038146E0,2.1572922E1,0E0,4.34639E0,3.2299614E1,7.123686E0,3.0495234E0,1.4022474E0,0E0,0E0,0E0,0E0,0E0,0E0,0E0,0E0,0E0,0E0,0E0,0E0,0E0,0E0,0E0,0E0,0E0,0E0,0E0,0E0,0E0,0E0,0E0,0E0,0E0,0E0,0E0,0E0],"parents":[2147483647,0,0,1,1,2,2,3,3,4,4,5,5,6,6,7,7,8,8,9,9,10,10,11,11,12,12,13,13,14,14,15,15,16,16,17,17,18,18,19,19,20,20,21,21,22,22,24,24,25,25,26,26,27,27,28,28],"right_children":[2,4,6,8,10,12,14,16,18,20,22,24,26,28,30,32,34,36,38,40,42,44,46,-1,48,50,52,54,56,-1,-1,-1,-1,-1,-1,-1,-1,-1,-1,-1,-1,-1,-1,-1,-1,-1,-1,-1,-1,-1,-1,-1,-1,-1,-1,-1,-1],"split_conditions":[9.367239E-2,-2.518485E-1,5.035965E-1,-8.3630073E-1,-4.4452763E-1,-3.582666E-1,7.1843755E-1,-3.4311053E-1,1.1278698E0,-8.820648E-2,-8.4259415E-1,-2.8239539E0,4.954512E-1,9.5056444E-1,-1.1687891E0,-1.3203467E-1,2.4368589E-1,-6.284668E-1,8.727364E-2,9.107105E-1,-1.657914E-1,1.5000346E0,7.119471E-1,-4.6236467E-2,-2.0679593E0,1.0837928E0,2.4658816E0,9.519141E-1,5.860439E-1,1.8884618E-2,1.1909547E-1,-2.1987554E-2,1.3393268E-1,-1.0107509E-1,8.282531E-2,6.3921383E-4,1.0119126E-1,8.7410465E-2,-9.977929E-2,1.2938792E-1,-2.0690296E-2,-6.987407E-2,7.7952474E-2,1.12355486E-1,4.8200893E-3,-8.613039E-2,1.5009849E-2,-4.8246413E-2,9.934079E-2,-3.392371E-2,1.06539324E-1,1.11875534E-1,-7.634044E-2,1.051471E-1,-7.556872E-3,3.238808E-2,-8.8320106E-2],"split_indices":[6,3,110,1,106,160,110,144,181,126,15,190,66,126,0,164,43,64,185,111,1,164,155,0,7,5,183,55,26,0,0,0,0,0,0,0,0,0,0,0,0,0,0,0,0,0,0,0,0,0,0,0,0,0,0,0,0],"split_type":[0,0,0,0,0,0,0,0,0,0,0,0,0,0,0,0,0,0,0,0,0,0,0,0,0,0,0,0,0,0,0,0,0,0,0,0,0,0,0,0,0,0,0,0,0,0,0,0,0,0,0,0,0,0,0,0,0],"sum_hessian":[8.342641E2,5.1833765E2,3.1592642E2,1.5529764E2,3.6304E2,2.4352327E2,7.240316E1,3.8566315E1,1.1673132E2,8.9718216E1,2.7332178E2,6.57382E1,1.7778508E2,1.8176043E1,5.4227116E1,4.969887E0,3.3596428E1,9.626841E1,2.0462914E1,3.2948723E1,5.6769493E1,1.2408327E1,2.6091345E2,1.8321083E0,6.390609E1,1.5166194E2,2.6123135E1,1.59988985E1,2.177145E0,1.3499677E0,5.2877148E1,1.072524E0,3.897363E0,3.04829E1,3.113526E0,1.6548119E1,7.972029E1,4.57795E0,1.5884963E1,2.3760689E1,9.188034E0,4.0993896E1,1.5775597E1,1.1340937E1,1.0673908E0,2.3808296E2,2.2830496E1,1.4998825E0,6.2406208E1,1.3401324E2,1.76487E1,2.4625345E1,1.4977889E0,1.3266787E1,2.7321122E0,1.0208288E0,1.1563162E0],"tree_param":{"num_deleted":"0","num_feature":"193","num_nodes":"57","size_leaf_vector":"1"}},{"base_weights":[3.3737518E-2,-2.913222E-1,3.6042717E-1,9.640171E-2,-5.821446E-1,8.625111E-1,1.24040455E-1,-1.3072081E-1,1.0460308E0,-8.028701E-1,2.6508325E-1,3.11486E-1,1.0297782E0,5.746467E-1,-2.3476486E-1,7.37959E-1,-4.1462883E-1,-7.7803514E-4,1.3126812E0,-8.6904573E-1,4.9356022E-1,-5.797141E-1,8.2568514E-1,-2.0916077E-1,1.1037514E-1,1.0581526E0,-5.916923E-2,-4.2149445E-1,7.857705E-1,6.287577E-1,-5.0056314E-1,-2.3547728E-2,1.2179764E-1,9.331369E-2,-5.7015993E-2,9.7522855E-2,-7.063757E-2,-3.1093458E-2,1.4165393E-1,-9.261931E-2,5.717022E-2,-1.0199614E-1,1.1605429E-1,8.458235E-2,-1.0602285E-1,1.9593345E-2,1.6744779E-1,-7.0694074E-2,7.418735E-2,2.050558E-2,1.1030462E-1,-9.8302074E-2,8.8974476E-2,2.1327185E-2,9.785351E-2,-1.6445799E-2,1.19953886E-1,8.476179E-2,-7.2450586E-2],"categories":[],"categories_nodes":[],"categories_segments":[],"categories_sizes":[],"default_left":[0,0,0,0,0,0,0,0,0,0,0,0,0,0,0,0,0,0,0,0,0,0,0,0,0,0,0,0,0,0,0,0,0,0,0,0,0,0,0,0,0,0,0,0,0,0,0,0,0,0,0,0,0,0,0,0,0,0,0],"id":17,"left_children":[1,3,5,7,9,11,13,15,17,19,21,23,25,27,29,31,33,35,37,39,41,43,45,47,-1,49,-1,51,53,55,57,-1,-1,-1,-1,-1,-1,-1,-1,-1,-1,-1,-1,-1,-1,-1,-1,-1,-1,-1,-1,-1,-1,-1,-1,-1,-1,-1,-1],"loss_changes":[8.5256E1,4.5439163E1,4.7411026E1,3.7527153E1,4.3246376E1,1.147596E1,4.433442E1,3.5027874E1,9.371689E0,1.6112312E1,2.3359547E1,1.3116497E1,5.1234894E0,2.587862E1,3.540901E1,1.6659346E1,2.2908743E1,6.070633E0,4.952194E0,1.487973E1,1.0789923E1,1.4500168E1,1.5415895E1,9.846467E0,0E0,3.4669342E0,0E0,1.699527E1,1.0891212E1,1.6691147E1,3.6080338E1,0E0,0E0,0E0,0E0,0E0,0E0,0E0,0E0,0E0,0E0,0E0,0E0,0E0,0E0,0E0,0E0,0E0,0E0,0E0,0E0,0E0,0E0,0E0,0E0,0E0,0E0,0E0,0E0],"parents":[2147483647,0,0,1,1,2,2,3,3,4,4,5,5,6,6,7,7,8,8,9,9,10,10,11,11,12,12,13,13,14,14,15,15,16,16,17,17,18,18,19,19,20,20,21,21,22,22,23,23,25,25,27,27,28,28,29,29,30,30],"right_children":[2,4,6,8,10,12,14,16,18,20,22,24,26,28,30,32,34,36,38,40,42,44,46,48,-1,50,-1,52,54,56,58,-1,-1,-1,-1,-1,-1,-1,-1,-1,-1,-1,-1,-1,-1,-1,-1,-1,-1,-1,-1,-1,-1,-1,-1,-1,-1,-1,-1],"split_conditions":[-2.7815846E-1,-4.052517E-2,-3.9169782E-1,4.8149052E-1,4.1785792E-1,-7.653759E-1,-1.9445196E-1,-2.2250009E-1,-4.6226063E-1,1.1499542E0,-4.382012E-1,9.978217E-1,2.8740244E0,-1.2777988E0,-4.931224E-1,-5.1924443E-1,-6.098038E-1,-1.4080295E-1,-1.4983006E0,1.0501796E0,-4.3043244E-1,1.6123755E-2,-1.0587277E-2,1.9607858E-1,1.1037514E-1,-2.1803176E0,-5.916923E-2,-1.0542052E0,-5.164721E-1,-8.392203E-1,-4.3102077E-1,-2.3547728E-2,1.2179764E-1,9.331369E-2,-5.7015993E-2,9.7522855E-2,-7.063757E-2,-3.1093458E-2,1.4165393E-1,-9.261931E-2,5.717022E-2,-1.0199614E-1,1.1605429E-1,8.458235E-2,-1.0602285E-1,1.9593345E-2,1.6744779E-1,-7.0694074E-2,7.418735E-2,2.050558E-2,1.1030462E-1,-9.8302074E-2,8.8974476E-2,2.1327185E-2,9.785351E-2,-1.6445799E-2,1.19953886E-1,8.476179E-2,-7.2450586E-2],"split_indices":[0,126,8,163,43,1,23,15,33,11,60,0,7,34,80,16,10,46,178,20,119,156,162,4,0,48,0,1,87,7,51,0,0,0,0,0,0,0,0,0,0,0,0,0,0,0,0,0,0,0,0,0,0,0,0,0,0,0,0],"split_type":[0,0,0,0,0,0,0,0,0,0,0,0,0,0,0,0,0,0,0,0,0,0,0,0,0,0,0,0,0,0,0,0,0,0,0,0,0,0,0,0,0,0,0,0,0,0,0,0,0,0,0,0,0,0,0,0,0,0,0],"sum_hessian":[8.0084644E2,4.014789E2,3.9936755E2,1.7235887E2,2.2912003E2,1.2699092E2,2.7237662E2,1.3978813E2,3.257074E1,1.8180684E2,4.731319E1,3.0238628E1,9.67523E1,1.2047559E2,1.5190103E2,3.4038986E1,1.05749146E2,6.8147316E0,2.575601E1,1.7329095E2,8.515883E0,1.8859232E1,2.8453957E1,1.8691366E1,1.1547261E1,9.542977E1,1.3225213E0,2.0894249E1,9.9581345E1,3.543021E1,1.16470825E2,1.1409959E1,2.2629026E1,1.0423542E1,9.532561E1,2.6991055E0,4.115626E0,1.4286143E0,2.4327396E1,1.6702312E2,6.2678385E0,2.442998E0,6.072885E0,4.5627418E0,1.429649E1,1.7041245E1,1.1412712E1,1.2437913E1,6.2534547E0,5.0492005E0,9.038057E1,1.4804618E1,6.089631E0,2.561445E1,7.3966896E1,1.5124096E1,2.0306114E1,1.6194092E1,1.0027673E2],"tree_param":{"num_deleted":"0","num_feature":"193","num_nodes":"59","size_leaf_vector":"1"}},{"base_weights":[7.182139E-3,-1.7065218E-1,5.714074E-1,5.047482E-1,-3.205798E-1,8.753559E-1,1.09586276E-1,1.0950199E0,1.3368753E-1,4.5741582E-1,-4.728463E-1,-4.9148643E-1,9.689671E-1,7.112539E-1,-3.6536518E-1,4.4357482E-1,1.269307E0,7.107528E-1,-4.0424764E-1,6.432363E-2,1.2976261E0,-5.740272E-1,4.846122E-1,7.88048E-2,-9.967261E-2,1.1440347E0,6.687729E-1,1.5367673E-1,1.1478337E0,1.0067729E0,-6.7606336E-1,1.02676E-1,-6.5976225E-2,1.318088E-1,8.441913E-3,3.3354275E-3,1.3524394E-1,-7.590293E-2,8.9355044E-2,-4.207179E-2,8.398137E-2,1.4200906E-1,1.2760418E-2,-6.554067E-2,6.8534255E-2,1.0234069E-1,-4.3080684E-2,1.1577268E-1,1.4610778E-2,1.4745978E-2,1.0105878E-1,-7.222151E-2,8.2458995E-2,1.7946417E-2,1.1928999E-1,9.992006E-3,1.11873366E-1,-1.0309237E-1,7.156066E-2],"categories":[],"categories_nodes":[],"categories_segments":[],"categories_sizes":[],"default_left":[0,0,0,0,0,0,0,0,0,0,0,0,0,0,0,0,0,0,0,0,0,0,0,0,0,0,0,0,0,0,0,0,0,0,0,0,0,0,0,0,0,0,0,0,0,0,0,0,0,0,0,0,0,0,0,0,0,0,0],"id":18,"left_children":[1,3,5,7,9,11,13,15,17,19,21,23,25,27,29,31,33,35,37,39,41,43,45,-1,-1,47,49,51,53,55,57,-1,-1,-1,-1,-1,-1,-1,-1,-1,-1,-1,-1,-1,-1,-1,-1,-1,-1,-1,-1,-1,-1,-1,-1,-1,-1,-1,-1],"loss_changes":[7.8715034E1,6.0566254E1,2.6293709E1,2.3673069E1,5.8117275E1,1.496505E1,2.1910463E1,4.1871185E0,2.1369427E1,2.6507643E1,3.9925766E1,5.906577E0,4.82222E0,8.042379E0,1.9013027E1,7.348579E0,1.7654839E0,1.4354816E1,1.7155415E1,2.1380436E1,3.488224E0,3.843096E1,2.000098E1,0E0,0E0,7.291641E-1,7.258337E0,9.986944E0,6.055527E-1,7.350931E-1,1.8348574E1,0E0,0E0,0E0,0E0,0E0,0E0,0E0,0E0,0E0,0E0,0E0,0E0,0E0,0E0,0E0,0E0,0E0,0E0,0E0,0E0,0E0,0E0,0E0,0E0,0E0,0E0,0E0,0E0],"parents":[2147483647,0,0,1,1,2,2,3,3,4,4,5,5,6,6,7,7,8,8,9,9,10,10,11,11,12,12,13,13,14,14,15,15,16,16,17,17,18,18,19,19,20,20,21,21,22,22,25,25,26,26,27,27,28,28,29,29,30,30],"right_children":[2,4,6,8,10,12,14,16,18,20,22,24,26,28,30,32,34,36,38,40,42,44,46,-1,-1,48,50,52,54,56,58,-1,-1,-1,-1,-1,-1,-1,-1,-1,-1,-1,-1,-1,-1,-1,-1,-1,-1,-1,-1,-1,-1,-1,-1,-1,-1,-1,-1],"split_conditions":[4.9067262E-1,-5.603321E-1,4.5905176E-1,-3.602285E-1,-7.0192415E-1,-1.7264674E0,1.05758E-1,-3.289192E-1,2.4075936E-1,2.8436995E-1,7.504981E-1,-4.480319E-1,2.4052143E-1,1.0537181E0,-9.4628024E-1,-7.940738E-1,2.0480716E0,-3.4968844E-1,2.918251E-1,3.2855064E-2,6.1560273E-1,7.4950546E-1,8.3573043E-1,7.88048E-2,-9.967261E-2,2.0274715E0,-1.4125198E-1,-1.7340423E-1,-1.6117026E0,-1.4036212E0,2.58228E-1,1.02676E-1,-6.5976225E-2,1.318088E-1,8.441913E-3,3.3354275E-3,1.3524394E-1,-7.590293E-2,8.9355044E-2,-4.207179E-2,8.398137E-2,1.4200906E-1,1.2760418E-2,-6.554067E-2,6.8534255E-2,1.0234069E-1,-4.3080684E-2,1.1577268E-1,1.4610778E-2,1.4745978E-2,1.0105878E-1,-7.222151E-2,8.2458995E-2,1.7946417E-2,1.1928999E-1,9.992006E-3,1.11873366E-1,-1.0309237E-1,7.156066E-2],"split_indices":[6,146,9,23,156,1,8,87,47,16,19,133,136,9,30,146,55,25,129,49,139,0,82,0,0,78,0,67,144,103,188,0,0,0,0,0,0,0,0,0,0,0,0,0,0,0,0,0,0,0,0,0,0,0,0,0,0,0,0],"split_type":[0,0,0,0,0,0,0,0,0,0,0,0,0,0,0,0,0,0,0,0,0,0,0,0,0,0,0,0,0,0,0,0,0,0,0,0,0,0,0,0,0,0,0,0,0,0,0,0,0,0,0,0,0,0,0,0,0,0,0],"sum_hessian":[7.8252203E2,5.9552124E2,1.8700076E2,1.077514E2,4.8776987E2,1.1223657E2,7.476419E1,4.0837437E1,6.691396E1,7.951079E1,4.0825906E2,6.9216313E0,1.0531494E2,3.2762806E1,4.200139E1,9.367805E0,3.1469633E1,3.2127842E1,3.4786125E1,5.490163E1,2.4609158E1,3.6960135E2,3.865771E1,1.800942E0,5.1206894E0,6.474555E1,4.056939E1,1.4981373E1,1.7781433E1,7.340987E0,3.46604E1,6.1739016E0,3.1939025E0,3.0117306E1,1.3523272E0,1.6140766E1,1.5987076E1,2.7644133E1,7.141991E0,3.405741E1,2.084422E1,2.2083935E1,2.5252218E0,3.476181E2,2.1983248E1,2.4260546E1,1.4397166E1,6.3711277E1,1.0342782E0,1.6633104E1,2.3936283E1,6.464874E0,8.516499E0,1.0122718E0,1.6769161E1,1.014693E0,6.326294E0,2.7824644E1,6.8357573E0],"tree_param":{"num_deleted":"0","num_feature":"193","num_nodes":"59","size_leaf_vector":"1"}},{"base_weights":[1.2628184E-2,-8.819104E-2,9.468066E-1,-4.5992896E-1,1.5047105E-1,1.1357123E0,-1.6672185E-1,-5.498926E-1,1.0656158E0,-1.1721818E-2,7.3003256E-1,1.1484887E-1,1.8890934E-2,8.2512367E-1,-8.997574E-1,-7.2995655E-2,-7.7522516E-1,2.884688E-2,1.105053E-1,5.362424E-1,-2.1156295E-1,1.952573E-1,9.752308E-1,1.4664155E-2,9.462004E-2,5.7686367E-3,-1.0690277E-1,-3.8952377E-2,9.888955E-2,-8.907891E-2,6.0012665E-2,1.1229526E-1,4.743475E-3,6.365565E-2,-3.486565E-2,-5.3397477E-2,6.1153032E-2,8.016944E-3,1.11685924E-1],"categories":[],"categories_nodes":[],"categories_segments":[],"categories_sizes":[],"default_left":[0,0,0,0,0,0,0,0,0,0,0,0,0,0,0,0,0,0,0,0,0,0,0,0,0,0,0,0,0,0,0,0,0,0,0,0,0,0,0],"id":19,"left_children":[1,3,5,7,9,11,13,15,17,19,21,-1,-1,23,25,27,29,-1,-1,31,33,35,37,-1,-1,-1,-1,-1,-1,-1,-1,-1,-1,-1,-1,-1,-1,-1,-1],"loss_changes":[7.124015E1,6.0650043E1,1.5688049E1,3.7261536E1,3.916965E1,5.465927E-1,9.146151E0,2.7131752E1,1.4774704E-1,3.586634E1,1.1756588E1,0E0,0E0,3.0762243E-1,1.2163606E0,2.8044231E1,2.7827682E1,0E0,0E0,2.505044E1,2.8122414E1,9.4007435E0,7.7976303E0,0E0,0E0,0E0,0E0,0E0,0E0,0E0,0E0,0E0,0E0,0E0,0E0,0E0,0E0,0E0,0E0],"parents":[2147483647,0,0,1,1,2,2,3,3,4,4,5,5,6,6,7,7,8,8,9,9,10,10,13,13,14,14,15,15,16,16,19,19,20,20,21,21,22,22],"right_children":[2,4,6,8,10,12,14,16,18,20,22,-1,-1,24,26,28,30,-1,-1,32,34,36,38,-1,-1,-1,-1,-1,-1,-1,-1,-1,-1,-1,-1,-1,-1,-1,-1],"split_conditions":[1.1735113E0,-3.5519797E-1,2.0802045E0,9.942123E-1,3.89376E-1,3.1576846E0,1.5257299E0,-1.6095152E-1,-4.2253426E-1,-4.3205965E-1,-5.2624923E-1,1.1484887E-1,1.8890934E-2,-8.8943195E-1,-3.9331865E-1,5.1341057E-1,5.80757E-1,2.884688E-2,1.105053E-1,1.5021157E-1,-6.269554E-1,-3.9542246E-1,-1.1497405E0,1.4664155E-2,9.462004E-2,5.7686367E-3,-1.0690277E-1,-3.8952377E-2,9.888955E-2,-8.907891E-2,6.0012665E-2,1.1229526E-1,4.743475E-3,6.365565E-2,-3.486565E-2,-5.3397477E-2,6.1153032E-2,8.016944E-3,1.11685924E-1],"split_indices":[0,6,84,4,27,161,171,23,11,47,87,0,0,77,184,169,43,0,0,9,55,155,21,0,0,0,0,0,0,0,0,0,0,0,0,0,0,0,0],"split_type":[0,0,0,0,0,0,0,0,0,0,0,0,0,0,0,0,0,0,0,0,0,0,0,0,0,0,0,0,0,0,0,0,0,0,0,0,0,0,0],"sum_hessian":[7.545137E2,6.818338E2,7.267987E1,2.662297E2,4.156041E2,6.2121315E1,1.0558554E1,2.5200795E2,1.422174E1,3.2549316E2,9.011093E1,6.108402E1,1.0372983E0,4.433759E0,6.1247945E0,8.128956E1,1.707184E2,1.0884001E0,1.313334E1,8.65339E1,2.3895926E2,2.8892647E1,6.121828E1,1.0062339E0,3.4275253E0,1.0191844E0,5.10561E0,6.311072E1,1.8178837E1,1.5781067E2,1.2907722E1,3.873882E1,4.7795082E1,3.2744503E1,2.0621475E2,1.0396748E1,1.84959E1,8.577343E0,5.2640938E1],"tree_param":{"num_deleted":"0","num_feature":"193","num_nodes":"39","size_leaf_vector":"1"}},{"base_weights":[3.061245E-3,7.5577533E-1,-1.1260752E-1,-3.2146662E-1,1.0074174E0,5.164365E-1,-2.724741E-1,-9.2247385E-1,1.01317525E-1,1.1186322E0,4.7084412E-1,-5.4709494E-1,6.8306196E-1,-3.7140942E-1,7.223765E-1,-1.1412687E0,8.1393756E-2,-6.8374905E-3,1.1397555E0,-1.1737335E-1,8.274603E-1,-9.9710315E-1,1.1666401E-1,1.6734133E-2,9.299069E-1,-4.3902582E-1,1.0227059E0,9.5479286E-1,-7.5060344E-1,1.1150706E-2,-1.270926E-1,-4.10204E-3,1.16198055E-1,-7.3596872E-3,1.111539E-1,-1.203621E-1,7.0390455E-2,-5.977252E-2,9.001145E-2,1.15365304E-1,5.714054E-2,-1.3567673E-2,-7.208336E-2,-3.3408474E-2,1.1192657E-1,-5.2523813E-3,1.05171874E-1,-1.0081019E-1,3.7272047E-2],"categories":[],"categories_nodes":[],"categories_segments":[],"categories_sizes":[],"default_left":[0,0,0,0,0,0,0,0,0,0,0,0,0,0,0,0,0,0,0,0,0,0,0,0,0,0,0,0,0,0,0,0,0,0,0,0,0,0,0,0,0,0,0,0,0,0,0,0,0],"id":20,"left_children":[1,3,5,7,9,11,13,15,-1,17,19,21,23,25,27,29,-1,-1,31,-1,33,35,-1,37,39,41,43,45,47,-1,-1,-1,-1,-1,-1,-1,-1,-1,-1,-1,-1,-1,-1,-1,-1,-1,-1,-1,-1],"loss_changes":[6.383254E1,2.679636E1,6.405079E1,1.6376068E1,4.211792E0,2.3256813E1,5.020888E1,6.170573E0,0E0,1.7088623E0,9.979275E0,1.5080126E1,1.8419823E1,4.4014404E1,1.6544756E1,2.1995926E0,0E0,0E0,1.7262955E0,0E0,3.462901E0,6.0575123E0,0E0,1.7536465E1,5.8995895E0,3.764261E1,3.2140923E0,3.9971123E0,2.360261E0,0E0,0E0,0E0,0E0,0E0,0E0,0E0,0E0,0E0,0E0,0E0,0E0,0E0,0E0,0E0,0E0,0E0,0E0,0E0,0E0],"parents":[2147483647,0,0,1,1,2,2,3,3,4,4,5,5,6,6,7,7,9,9,10,10,11,11,12,12,13,13,14,14,15,15,18,18,20,20,21,21,23,23,24,24,25,25,26,26,27,27,28,28],"right_children":[2,4,6,8,10,12,14,16,-1,18,20,22,24,26,28,30,-1,-1,32,-1,34,36,-1,38,40,42,44,46,48,-1,-1,-1,-1,-1,-1,-1,-1,-1,-1,-1,-1,-1,-1,-1,-1,-1,-1,-1,-1],"split_conditions":[-8.105966E-1,-1.0336196E0,-5.8301044E-1,-9.8831564E-1,-9.2736506E-1,-1.0370922E0,1.0962459E0,1.031408E0,1.01317525E-1,-2.861355E0,-1.3548156E0,2.5771058E-1,-5.3074455E-1,1.2755994E0,1.6490698E0,-8.11788E-1,8.1393756E-2,-6.8374905E-3,-3.2543936E0,-1.1737335E-1,-6.2374455E-1,-5.515208E-1,1.1666401E-1,4.876074E-2,3.0828723E-1,7.0617944E-2,-2.18182E0,-1.7255406E0,2.2381686E-1,1.1150706E-2,-1.270926E-1,-4.10204E-3,1.16198055E-1,-7.3596872E-3,1.111539E-1,-1.203621E-1,7.0390455E-2,-5.977252E-2,9.001145E-2,1.15365304E-1,5.714054E-2,-1.3567673E-2,-7.208336E-2,-3.3408474E-2,1.1192657E-1,-5.2523813E-3,1.05171874E-1,-1.0081019E-1,3.7272047E-2],"split_indices":[15,1,47,56,15,0,6,109,0,32,37,4,6,4,22,161,0,0,175,0,6,28,0,12,178,3,66,114,87,0,0,0,0,0,0,0,0,0,0,0,0,0,0,0,0,0,0,0,0],"split_type":[0,0,0,0,0,0,0,0,0,0,0,0,0,0,0,0,0,0,0,0,0,0,0,0,0,0,0,0,0,0,0,0,0,0,0,0,0,0,0,0,0,0,0,0,0,0,0,0,0],"sum_hessian":[7.311778E2,9.66559E1,6.345219E2,1.8250559E1,7.840534E1,1.2812894E2,5.0639297E2,1.2796807E1,5.453752E0,6.404589E1,1.4359452E1,1.7045849E1,1.1108309E2,4.611586E2,4.5234356E1,1.1669186E1,1.1276218E0,1.0806892E0,6.2965202E1,2.1505644E0,1.2208888E1,1.3831909E1,3.2139397E0,3.0316147E1,8.0766945E1,4.4047986E2,2.067876E1,3.937354E1,5.860818E0,1.1075724E0,1.0561613E1,1.1476351E0,6.1817566E1,3.1040888E0,9.104799E0,1.2595149E1,1.2367594E0,1.8070255E1,1.2245893E1,4.8364166E1,3.240278E1,2.1284572E2,2.2763412E2,1.210452E0,1.946831E1,3.4962573E0,3.587728E1,4.8513255E0,1.0094924E0],"tree_param":{"num_deleted":"0","num_feature":"193","num_nodes":"49","size_leaf_vector":"1"}},{"base_weights":[2.901809E-2,7.851313E-1,-8.386632E-2,-1.3886365E-1,1.0132384E0,4.9353975E-1,-2.4068616E-1,-7.119894E-1,1.00927785E-1,1.1162664E0,4.9582604E-1,-5.2050346E-1,6.1962163E-1,-3.2626384E-1,8.3981705E-1,-1.012129E0,7.916983E-2,7.211781E-1,1.17876224E-1,1.243263E-1,-8.091403E-2,-9.223619E-1,1.0833784E-1,-2.8895093E-2,8.9113986E-1,1.9847605E-1,-4.9459442E-1,1.0112977E0,-7.710473E-1,1.1148002E-2,-1.199741E-1,-5.1707774E-2,1.02326624E-1,8.054348E-2,-7.515162E-2,-1.1184672E-1,6.1018873E-2,1.2015649E-1,-4.4627026E-2,6.3931204E-2,1.2009934E-1,8.447305E-2,-1.7503057E-2,2.1261994E-2,-6.200392E-2,-3.1123022E-2,1.1390559E-1,1.9690773E-2,-1.1786982E-1],"categories":[],"categories_nodes":[],"categories_segments":[],"categories_sizes":[],"default_left":[0,0,0,0,0,0,0,0,0,0,0,0,0,0,0,0,0,0,0,0,0,0,0,0,0,0,0,0,0,0,0,0,0,0,0,0,0,0,0,0,0,0,0,0,0,0,0,0,0],"id":21,"left_children":[1,3,5,7,9,11,13,15,-1,17,19,21,23,25,27,29,-1,31,-1,-1,33,35,-1,37,39,41,43,45,47,-1,-1,-1,-1,-1,-1,-1,-1,-1,-1,-1,-1,-1,-1,-1,-1,-1,-1,-1,-1],"loss_changes":[6.029901E1,1.9482452E1,5.579942E1,1.3253166E1,3.3763123E0,1.7156414E1,4.505185E1,6.8003883E0,0E0,6.481247E-1,6.153158E0,1.073427E1,2.0726673E1,3.979697E1,1.0674133E1,2.562108E0,0E0,4.592668E0,0E0,0E0,5.874034E0,4.4746904E0,0E0,1.885163E1,5.7007904E0,2.6668732E1,3.0345703E1,5.8974457E0,1.8158026E0,0E0,0E0,0E0,0E0,0E0,0E0,0E0,0E0,0E0,0E0,0E0,0E0,0E0,0E0,0E0,0E0,0E0,0E0,0E0,0E0],"parents":[2147483647,0,0,1,1,2,2,3,3,4,4,5,5,6,6,7,7,9,9,10,10,11,11,12,12,13,13,14,14,15,15,17,17,20,20,21,21,23,23,24,24,25,25,26,26,27,27,28,28],"right_children":[2,4,6,8,10,12,14,16,-1,18,20,22,24,26,28,30,-1,32,-1,-1,34,36,-1,38,40,42,44,46,48,-1,-1,-1,-1,-1,-1,-1,-1,-1,-1,-1,-1,-1,-1,-1,-1,-1,-1,-1,-1],"split_conditions":[-8.105966E-1,-1.0166072E0,-5.5499494E-1,-8.398387E-1,-9.2736506E-1,-1.1687891E0,1.1033254E0,7.110837E-1,1.00927785E-1,-1.1500872E0,1.2888382E-1,2.5771058E-1,-5.233356E-1,-4.5565858E-1,1.3658665E0,-3.9169782E-1,7.916983E-2,-4.2012498E-1,1.17876224E-1,1.243263E-1,-8.6938575E-2,-7.6810247E-1,1.0833784E-1,-3.9916593E-1,-1.10128835E-1,-8.820648E-2,-7.5512594E-1,-9.1895086E-1,7.4252933E-1,1.1148002E-2,-1.199741E-1,-5.1707774E-2,1.02326624E-1,8.054348E-2,-7.515162E-2,-1.1184672E-1,6.1018873E-2,1.2015649E-1,-4.4627026E-2,6.3931204E-2,1.2009934E-1,8.447305E-2,-1.7503057E-2,2.1261994E-2,-6.200392E-2,-3.1123022E-2,1.1390559E-1,1.9690773E-2,-1.1786982E-1],"split_indices":[15,1,47,56,15,0,5,79,0,108,27,4,6,106,59,8,0,0,0,0,93,29,0,107,57,126,125,1,3,0,0,0,0,0,0,0,0,0,0,0,0,0,0,0,0,0,0,0,0],"split_type":[0,0,0,0,0,0,0,0,0,0,0,0,0,0,0,0,0,0,0,0,0,0,0,0,0,0,0,0,0,0,0,0,0,0,0,0,0,0,0,0,0,0,0,0,0,0,0,0,0],"sum_hessian":[7.046916E2,9.076716E1,6.139244E2,1.8048647E1,7.271851E1,1.3066661E2,4.8325778E2,1.2292427E1,5.7562194E0,5.967795E1,1.3040561E1,1.4103951E1,1.1656266E2,4.4843872E2,3.4819057E1,1.0519594E1,1.7728331E0,9.863323E0,4.981463E1,5.176416E0,7.8641453E0,1.161795E1,2.4860008E0,3.4663372E1,8.1899284E1,1.0887176E2,3.39567E2,3.1805483E1,3.0135753E0,1.5632261E0,8.9563675E0,1.7947953E0,8.068527E0,3.300605E0,4.5635405E0,1.0539507E1,1.0784433E0,8.303889E0,2.6359484E1,4.6869892E1,3.5029396E1,3.941423E1,6.945753E1,5.1052986E1,2.8851398E2,2.6752908E0,2.9130192E1,1.0462517E0,1.9673235E0],"tree_param":{"num_deleted":"0","num_feature":"193","num_nodes":"49","size_leaf_vector":"1"}},{"base_weights":[9.426042E-4,-1.3815942E-1,5.8580875E-1,3.881201E-1,-3.0617833E-1,2.3552872E-2,8.5459495E-1,1.1182599E0,2.2393993E-1,-3.9485678E-1,7.359534E-1,-5.4200524E-1,7.5125885E-1,3.4770808E-1,1.2015735E0,-6.114177E-3,1.1763744E0,-3.881346E-2,6.995729E-1,6.5767497E-1,-4.729409E-1,1.0067788E0,-5.749794E-1,-1.0849091E0,4.4762373E-1,-3.7667432E-1,9.7813094E-1,-1.2950976E-1,1.0827788E0,7.3219234E-1,1.3963698E-1,1.2118109E-1,2.6367068E-2,6.410323E-2,-4.9575686E-2,-2.0105422E-2,1.01298705E-1,1.4418988E-1,3.231243E-3,7.014317E-2,-5.4527294E-2,-3.7685197E-2,1.1780371E-1,-1.14879206E-1,5.930065E-2,-1.2077942E-1,1.1185928E-2,-7.054208E-2,1.0026225E-1,-7.579295E-2,3.7667766E-2,-6.9343536E-3,1.089405E-1,9.9584006E-2,-4.9540322E-2,4.6673915E-3,1.2154257E-1,9.418992E-3,1.229646E-1],"categories":[],"categories_nodes":[],"categories_segments":[],"categories_sizes":[],"default_left":[0,0,0,0,0,0,0,0,0,0,0,0,0,0,0,0,0,0,0,0,0,0,0,0,0,0,0,0,0,0,0,0,0,0,0,0,0,0,0,0,0,0,0,0,0,0,0,0,0,0,0,0,0,0,0,0,0,0,0],"id":22,"left_children":[1,3,5,7,9,11,13,15,17,19,21,23,25,27,29,-1,31,33,35,37,39,41,43,45,47,49,51,53,55,57,-1,-1,-1,-1,-1,-1,-1,-1,-1,-1,-1,-1,-1,-1,-1,-1,-1,-1,-1,-1,-1,-1,-1,-1,-1,-1,-1,-1,-1],"loss_changes":[5.5757587E1,4.9077553E1,1.9880562E1,1.5864237E1,3.912748E1,1.8358887E1,1.524659E1,1.7462521E0,1.3899429E1,3.219437E1,1.240328E1,1.398444E1,5.356885E0,1.3329632E1,3.7745895E0,0E0,4.350624E-1,2.282416E1,1.1368006E1,1.3298252E1,3.1109581E1,7.0707397E0,4.9296093E0,2.5640697E0,6.856052E0,1.4304624E0,1.9996185E0,1.0248495E1,1.9921417E0,5.4349785E0,0E0,0E0,0E0,0E0,0E0,0E0,0E0,0E0,0E0,0E0,0E0,0E0,0E0,0E0,0E0,0E0,0E0,0E0,0E0,0E0,0E0,0E0,0E0,0E0,0E0,0E0,0E0,0E0,0E0],"parents":[2147483647,0,0,1,1,2,2,3,3,4,4,5,5,6,6,7,7,8,8,9,9,10,10,11,11,12,12,13,13,14,14,16,16,17,17,18,18,19,19,20,20,21,21,22,22,23,23,24,24,25,25,26,26,27,27,28,28,29,29],"right_children":[2,4,6,8,10,12,14,16,18,20,22,24,26,28,30,-1,32,34,36,38,40,42,44,46,48,50,52,54,56,58,-1,-1,-1,-1,-1,-1,-1,-1,-1,-1,-1,-1,-1,-1,-1,-1,-1,-1,-1,-1,-1,-1,-1,-1,-1,-1,-1,-1,-1],"split_conditions":[6.5626943E-1,-4.3205965E-1,-3.8284922E-1,-8.0452263E-1,1.0837928E0,-1.04187496E-1,-2.9748863E-1,-2.0524435E0,1.3607775E-1,-1.0145608E0,1.2068713E0,7.094488E-2,-1.1804492E0,1.0186107E-1,-5.378991E-1,-6.114177E-3,-4.6954855E-1,-1.1319858E-1,-1.176499E0,2.3880212E-1,-1.0600847E0,-9.1895086E-1,-4.305094E-1,6.343859E-1,-6.2374455E-1,-7.929604E-1,-9.4099873E-1,-3.316766E-1,-1.2402682E0,-2.0149867E-1,1.3963698E-1,1.2118109E-1,2.6367068E-2,6.410323E-2,-4.9575686E-2,-2.0105422E-2,1.01298705E-1,1.4418988E-1,3.231243E-3,7.014317E-2,-5.4527294E-2,-3.7685197E-2,1.1780371E-1,-1.14879206E-1,5.930065E-2,-1.2077942E-1,1.1185928E-2,-7.054208E-2,1.0026225E-1,-7.579295E-2,3.7667766E-2,-6.9343536E-3,1.089405E-1,9.9584006E-2,-4.9540322E-2,4.6673915E-3,1.2154257E-1,9.418992E-3,1.229646E-1],"split_indices":[87,47,11,10,5,113,44,90,4,94,47,0,21,16,73,0,47,72,38,100,15,1,94,27,6,8,143,191,93,66,0,0,0,0,0,0,0,0,0,0,0,0,0,0,0,0,0,0,0,0,0,0,0,0,0,0,0,0,0],"split_type":[0,0,0,0,0,0,0,0,0,0,0,0,0,0,0,0,0,0,0,0,0,0,0,0,0,0,0,0,0,0,0,0,0,0,0,0,0,0,0,0,0,0,0,0,0,0,0,0,0,0,0,0,0,0,0,0,0,0,0],"sum_hessian":[6.833577E2,5.5267554E2,1.3068219E2,1.3342943E2,4.1924612E2,4.2618668E1,8.806352E1,2.3428291E1,1.1000113E2,3.8694113E2,3.2304996E1,2.4124662E1,1.8494005E1,3.659926E1,5.1464264E1,1.0977612E0,2.233053E1,7.144903E1,3.8552105E1,2.6210814E1,3.6073032E2,2.696609E1,5.3389072E0,1.5516265E1,8.6083975E0,2.9863858E0,1.550762E1,2.2691465E1,1.3907792E1,1.6489624E1,3.497464E1,2.1180464E1,1.1500667E0,2.855769E1,4.289134E1,1.0045072E1,2.8507032E1,1.1049146E1,1.5161668E1,2.0424461E1,3.4030585E2,2.837869E0,2.4128222E1,3.5910943E0,1.7478131E0,1.4063046E1,1.4532183E0,2.7090812E0,5.899316E0,1.9788542E0,1.0075316E0,1.5253755E0,1.39822445E1,5.145178E0,1.7546288E1,1.7318871E0,1.2175904E1,7.7453175E0,8.744307E0],"tree_param":{"num_deleted":"0","num_feature":"193","num_nodes":"59","size_leaf_vector":"1"}},{"base_weights":[1.8126592E-2,-6.536448E-2,8.9160264E-1,5.201475E-1,-1.9216858E-1,1.0965533E0,-1.8696977E-1,2.7492493E-1,9.854063E-1,-3.125962E-1,4.2319682E-1,2.3062503E-2,1.1125561E-1,-8.2342863E-1,8.3423585E-2,-3.5447273E-2,7.874791E-1,-7.784543E-2,1.0707473E0,3.9758447E-1,-4.3851086E-1,-4.3328956E-1,6.8338907E-1,1.88608E-2,-1.0477062E-1,4.025951E-2,-6.848099E-2,1.0525794E-1,-5.7675805E-2,1.6095519E-2,1.1684705E-1,-3.032136E-2,7.329291E-2,-3.1250012E-3,-6.9698386E-2,1.0621772E-1,-8.410992E-2,-2.7066988E-3,9.5970385E-2],"categories":[],"categories_nodes":[],"categories_segments":[],"categories_sizes":[],"default_left":[0,0,0,0,0,0,0,0,0,0,0,0,0,0,0,0,0,0,0,0,0,0,0,0,0,0,0,0,0,0,0,0,0,0,0,0,0,0,0],"id":23,"left_children":[1,3,5,7,9,11,13,15,17,19,21,-1,-1,23,-1,25,27,-1,29,31,33,35,37,-1,-1,-1,-1,-1,-1,-1,-1,-1,-1,-1,-1,-1,-1,-1,-1],"loss_changes":[4.9141117E1,4.5779297E1,1.3200291E1,1.2255735E1,3.766411E1,4.2998505E-1,7.3434167E0,1.16863985E1,6.4796677E0,3.810169E1,1.8863285E1,0E0,0E0,1.7438903E0,0E0,1.3531695E1,1.0619013E1,0E0,3.0302582E0,1.5356571E1,3.795172E1,1.3106073E1,1.2646975E1,0E0,0E0,0E0,0E0,0E0,0E0,0E0,0E0,0E0,0E0,0E0,0E0,0E0,0E0,0E0,0E0],"parents":[2147483647,0,0,1,1,2,2,3,3,4,4,5,5,6,6,7,7,8,8,9,9,10,10,13,13,15,15,16,16,18,18,19,19,20,20,21,21,22,22],"right_children":[2,4,6,8,10,12,14,16,18,20,22,-1,-1,24,-1,26,28,-1,30,32,34,36,38,-1,-1,-1,-1,-1,-1,-1,-1,-1,-1,-1,-1,-1,-1,-1,-1],"split_conditions":[1.1735113E0,-5.72009E-1,2.0802045E0,3.5920706E-1,5.6865436E-1,-3.7357447E0,-5.5049604E-1,1.9229257E-1,-1.0370922E0,-5.4465616E-1,-4.046321E-1,2.3062503E-2,1.1125561E-1,-7.9443717E-1,8.3423585E-2,4.4344774E-1,1.1056991E0,-7.784543E-2,-1.1804492E0,-6.515686E-1,-1.37868E-1,-4.880816E-1,-4.98252E-1,1.88608E-2,-1.0477062E-1,4.025951E-2,-6.848099E-2,1.0525794E-1,-5.7675805E-2,1.6095519E-2,1.1684705E-1,-3.032136E-2,7.329291E-2,-3.1250012E-3,-6.9698386E-2,1.0621772E-1,-8.410992E-2,-2.7066988E-3,9.5970385E-2],"split_indices":[0,55,84,87,43,177,77,144,0,80,44,0,0,142,0,38,140,0,21,59,23,97,135,0,0,0,0,0,0,0,0,0,0,0,0,0,0,0,0],"split_type":[0,0,0,0,0,0,0,0,0,0,0,0,0,0,0,0,0,0,0,0,0,0,0,0,0,0,0,0,0,0,0,0,0,0,0,0,0,0,0],"sum_hessian":[6.720365E2,6.142488E2,5.778771E1,1.0879429E2,5.054545E2,4.854626E1,9.2414465E0,7.228576E1,3.650853E1,4.23138E2,8.231651E1,1.1605238E0,4.738574E1,5.812512E0,3.4289348E0,4.560247E1,2.668329E1,1.310057E0,3.5198475E1,6.3399E1,3.5973898E2,1.9025188E1,6.3291325E1,1.083289E0,4.729223E0,2.7459232E1,1.8143236E1,2.2533081E1,4.1502075E0,3.670799E0,3.1527676E1,2.0549915E1,4.2849083E1,1.4010481E2,2.1963417E2,3.732662E0,1.5292527E1,1.7975376E1,4.531595E1],"tree_param":{"num_deleted":"0","num_feature":"193","num_nodes":"39","size_leaf_vector":"1"}},{"base_weights":[2.0400038E-2,8.229901E-1,-7.264714E-2,1.1642141E0,4.1728055E-1,-1.4019968E-1,1.0354718E0,-6.754283E-3,1.2085679E0,-1.8484224E-1,7.965228E-1,5.232284E-1,-2.51081E-1,1.0901367E-1,3.0888035E-3,1.2275352E0,2.8781965E-2,9.0418786E-1,-6.740988E-1,-6.414125E-1,1.0743014E0,1.4235179E-1,1.1866629E0,-3.265566E-1,9.680518E-1,3.1202292E-2,1.2468666E-1,1.0676595E-1,1.613102E-2,-8.990168E-2,5.0511878E-2,-9.427778E-2,4.8516085E-3,2.2834139E-2,1.1611787E-1,-3.112985E-2,8.548464E-2,1.32659E-1,3.7289247E-2,-4.284052E-2,3.7573192E-2,-6.155773E-2,1.077922E-1],"categories":[],"categories_nodes":[],"categories_segments":[],"categories_sizes":[],"default_left":[0,0,0,0,0,0,0,0,0,0,0,0,0,0,0,0,0,0,0,0,0,0,0,0,0,0,0,0,0,0,0,0,0,0,0,0,0,0,0,0,0,0,0],"id":24,"left_children":[1,3,5,7,9,11,13,-1,15,17,19,21,23,-1,-1,25,-1,27,29,31,33,35,37,39,41,-1,-1,-1,-1,-1,-1,-1,-1,-1,-1,-1,-1,-1,-1,-1,-1,-1,-1],"loss_changes":[4.85177E1,8.857834E0,4.3740818E1,2.0539627E0,7.543925E0,4.05763E1,1.8105392E0,0E0,2.5619125E-1,7.7115507E0,8.70262E0,1.9807745E1,4.3724262E1,0E0,0E0,2.1071243E-1,0E0,3.8142776E-1,3.0454326E0,8.512945E-1,9.981022E-1,1.686687E1,2.7730103E0,3.1990284E1,5.4928017E0,0E0,0E0,0E0,0E0,0E0,0E0,0E0,0E0,0E0,0E0,0E0,0E0,0E0,0E0,0E0,0E0,0E0,0E0],"parents":[2147483647,0,0,1,1,2,2,3,3,4,4,5,5,6,6,8,8,9,9,10,10,11,11,12,12,15,15,17,17,18,18,19,19,20,20,21,21,22,22,23,23,24,24],"right_children":[2,4,6,8,10,12,14,-1,16,18,20,22,24,-1,-1,26,-1,28,30,32,34,36,38,40,42,-1,-1,-1,-1,-1,-1,-1,-1,-1,-1,-1,-1,-1,-1,-1,-1,-1,-1],"split_conditions":[-8.8108087E-1,-1.7944948E-1,1.2755994E0,-2.4005744E0,-3.2949832E-1,-7.43483E-1,1.5711519E0,-6.754283E-3,1.7514656E0,-1.368091E-1,-2.462969E0,2.8436995E-1,1.1272367E0,1.0901367E-1,3.0888035E-3,-2.1182039E0,2.8781965E-2,-7.6193266E-2,5.030118E-1,-5.3923365E-2,-1.0027069E0,8.730707E-2,6.8022656E-1,8.762854E-1,-1.9589263E0,3.1202292E-2,1.2468666E-1,1.0676595E-1,1.613102E-2,-8.990168E-2,5.0511878E-2,-9.427778E-2,4.8516085E-3,2.2834139E-2,1.1611787E-1,-3.112985E-2,8.548464E-2,1.32659E-1,3.7289247E-2,-4.284052E-2,3.7573192E-2,-6.155773E-2,1.077922E-1],"split_indices":[146,23,4,42,6,156,64,0,189,7,24,16,5,0,0,176,0,35,167,39,27,88,127,132,60,0,0,0,0,0,0,0,0,0,0,0,0,0,0,0,0,0,0],"split_type":[0,0,0,0,0,0,0,0,0,0,0,0,0,0,0,0,0,0,0,0,0,0,0,0,0,0,0,0,0,0,0,0,0,0,0,0,0,0,0,0,0,0,0],"sum_hessian":[6.47885E2,6.6493355E1,5.8139166E2,3.5101498E1,3.139186E1,5.488089E2,3.2582706E1,1.2018489E0,3.3899647E1,1.2329274E1,1.9062584E1,7.805706E1,4.7075186E2,3.0820436E1,1.7622706E0,3.288894E1,1.0107077E0,3.559079E0,8.770195E0,2.8743393E0,1.6188246E1,5.0360023E1,2.7697035E1,4.4399652E2,2.6755352E1,1.0345469E0,3.1854393E1,2.558813E0,1.0002661E0,7.564917E0,1.2052783E0,1.7454357E0,1.1289035E0,1.8455628E0,1.4342682E1,3.1113152E1,1.9246874E1,2.3095592E1,4.6014423E0,3.881024E2,5.5894142E1,1.4372073E0,2.5318144E1],"tree_param":{"num_deleted":"0","num_feature":"193","num_nodes":"43","size_leaf_vector":"1"}},{"base_weights":[9.883267E-3,9.066994E-1,-7.27426E-2,7.589315E-2,1.0292667E0,1.9733475E-1,-3.4997785E-1,-8.057056E-1,7.381977E-1,-3.740819E-2,1.1015553E0,-4.364396E-1,3.737842E-1,-4.599371E-1,6.435642E-1,-1.23166084E-1,1.7891062E-2,8.8468984E-2,6.980193E-3,6.925058E-2,-7.712161E-2,1.3598114E-3,1.1341715E0,8.426561E-1,-5.966797E-1,7.881067E-1,6.7290574E-2,-5.6357354E-1,5.1326287E-1,-1.7718004E-1,9.3694973E-1,1.7209763E-2,1.15378596E-1,1.0226615E-1,-6.245334E-3,-8.0330126E-2,4.3551024E-2,4.668325E-2,1.1579926E-1,9.7728394E-2,-1.2991301E-2,1.0450585E-1,-6.215278E-2,9.732192E-2,-5.7579517E-2,-8.340921E-2,9.274381E-2,-3.405119E-2,1.11212485E-1],"categories":[],"categories_nodes":[],"categories_segments":[],"categories_sizes":[],"default_left":[0,0,0,0,0,0,0,0,0,0,0,0,0,0,0,0,0,0,0,0,0,0,0,0,0,0,0,0,0,0,0,0,0,0,0,0,0,0,0,0,0,0,0,0,0,0,0,0,0],"id":25,"left_children":[1,3,5,7,9,11,13,15,17,19,21,23,25,27,29,-1,-1,-1,-1,-1,-1,-1,31,33,35,37,39,41,43,45,47,-1,-1,-1,-1,-1,-1,-1,-1,-1,-1,-1,-1,-1,-1,-1,-1,-1,-1],"loss_changes":[4.732936E1,5.4086533E0,4.3867107E1,5.269799E0,3.6556664E0,3.336957E1,3.1870098E1,1.8614249E0,4.3701124E-1,2.645611E0,1.5435333E0,1.3851655E1,2.9510952E1,2.6592743E1,7.200925E0,0E0,0E0,0E0,0E0,0E0,0E0,0E0,6.061096E-1,1.3127232E0,1.2818424E1,1.1212006E1,2.4337467E1,2.2667145E1,1.3395252E1,6.966382E0,5.23048E0,0E0,0E0,0E0,0E0,0E0,0E0,0E0,0E0,0E0,0E0,0E0,0E0,0E0,0E0,0E0,0E0,0E0,0E0],"parents":[2147483647,0,0,1,1,2,2,3,3,4,4,5,5,6,6,7,7,8,8,9,9,10,10,11,11,12,12,13,13,14,14,22,22,23,23,24,24,25,25,26,26,27,27,28,28,29,29,30,30],"right_children":[2,4,6,8,10,12,14,16,18,20,22,24,26,28,30,-1,-1,-1,-1,-1,-1,-1,32,34,36,38,40,42,44,46,48,-1,-1,-1,-1,-1,-1,-1,-1,-1,-1,-1,-1,-1,-1,-1,-1,-1,-1],"split_conditions":[-7.252182E-1,-1.4963554E0,1.611142E-2,-4.8271832E-1,-8.96523E-1,-8.1362444E-1,8.34789E-1,4.2944494E-1,1.1580788E0,3.904907E-1,-2.352104E0,-7.884161E-1,-1.6095152E-1,9.551636E-1,-1.0460608E0,-1.23166084E-1,1.7891062E-2,8.8468984E-2,6.980193E-3,6.925058E-2,-7.712161E-2,1.3598114E-3,-2.5796921E0,1.2167305E0,5.714854E-1,-4.701453E-2,-5.884875E-1,-9.7120225E-1,6.905623E-1,-1.7063236E-1,-1.3195297E0,1.7209763E-2,1.15378596E-1,1.0226615E-1,-6.245334E-3,-8.0330126E-2,4.3551024E-2,4.668325E-2,1.1579926E-1,9.7728394E-2,-1.2991301E-2,1.0450585E-1,-6.215278E-2,9.732192E-2,-5.7579517E-2,-8.340921E-2,9.274381E-2,-3.405119E-2,1.11212485E-1],"split_indices":[70,88,3,133,0,1,6,6,109,65,16,98,23,18,20,0,0,0,0,0,0,0,93,125,86,150,96,140,15,87,172,0,0,0,0,0,0,0,0,0,0,0,0,0,0,0,0,0,0],"split_type":[0,0,0,0,0,0,0,0,0,0,0,0,0,0,0,0,0,0,0,0,0,0,0,0,0,0,0,0,0,0,0,0,0,0,0,0,0,0,0,0,0,0,0,0,0,0,0,0,0],"sum_hessian":[6.368309E2,5.2881775E1,5.839491E2,7.006737E0,4.587504E1,2.9593903E2,2.8801004E2,2.9128718E0,4.0938654E0,2.942259E0,4.293278E1,6.412833E1,2.3181071E2,2.5979462E2,2.8215435E1,1.8581239E0,1.054748E0,3.0924845E0,1.0013808E0,1.5032601E0,1.4389989E0,1.2908716E0,4.1641907E1,6.6652365E0,5.7463085E1,9.789861E1,1.3391211E2,2.3517197E2,2.4622652E1,7.5343156E0,2.068112E1,1.0273063E0,4.06146E1,5.451236E0,1.2140008E0,4.8063576E1,9.399511E0,5.360268E1,4.4295933E1,2.314662E1,1.1076549E2,7.585631E0,2.2758633E2,1.738611E1,7.236541E0,4.8781834E0,2.656132E0,2.380141E0,1.830098E1],"tree_param":{"num_deleted":"0","num_feature":"193","num_nodes":"49","size_leaf_vector":"1"}},{"base_weights":[2.6588267E-2,-1.05324484E-1,5.0806135E-1,2.0828272E-1,-3.5107866E-1,1.7327279E-1,9.320439E-1,1.2567319E-2,9.939585E-1,1.0707906E0,-4.254708E-1,-2.6372704E-1,6.812578E-1,5.7305926E-1,1.1715642E0,4.3753126E-1,-3.196609E-1,1.3682675E-1,5.9667665E-1,1.12381816E-1,2.0488251E-2,4.6856606E-1,-5.2953255E-1,-6.7773896E-1,5.4908353E-1,1.9121018E-1,1.0374388E0,9.711939E-1,-3.2319456E-2,1.2390075E0,-4.6311602E-2,-1.838189E-2,8.12068E-2,-4.5431748E-2,7.300573E-2,1.6379245E-2,1.1185948E-1,-1.0336473E-2,1.0580891E-1,4.0751692E-2,-6.3131414E-2,3.758467E-2,-9.114409E-2,8.9454584E-2,-6.746795E-2,-2.9449E-2,9.517501E-2,1.1124849E-1,-1.6434131E-2,2.744481E-2,1.1881544E-1,8.1063785E-2,-5.2516785E-2,5.866358E-3,1.2946899E-1],"categories":[],"categories_nodes":[],"categories_segments":[],"categories_sizes":[],"default_left":[0,0,0,0,0,0,0,0,0,0,0,0,0,0,0,0,0,0,0,0,0,0,0,0,0,0,0,0,0,0,0,0,0,0,0,0,0,0,0,0,0,0,0,0,0,0,0,0,0,0,0,0,0,0,0],"id":26,"left_children":[1,3,5,7,9,11,13,15,17,19,21,23,25,27,29,31,33,-1,35,-1,-1,37,39,41,43,45,47,49,51,53,-1,-1,-1,-1,-1,-1,-1,-1,-1,-1,-1,-1,-1,-1,-1,-1,-1,-1,-1,-1,-1,-1,-1,-1,-1],"loss_changes":[3.9501373E1,3.7711174E1,1.8822788E1,3.307665E1,2.9456432E1,1.7042297E1,4.383026E0,2.4605284E1,5.563278E0,4.0872383E-1,2.455415E1,1.4355831E1,5.9817295E0,6.17319E0,4.3553886E0,1.7941494E1,1.4160434E1,0E0,4.919484E0,0E0,0E0,9.4722E0,2.262136E1,7.2316704E0,6.7656374E0,6.2381716E0,2.0116806E0,2.0025759E0,5.027937E0,2.1070023E0,0E0,0E0,0E0,0E0,0E0,0E0,0E0,0E0,0E0,0E0,0E0,0E0,0E0,0E0,0E0,0E0,0E0,0E0,0E0,0E0,0E0,0E0,0E0,0E0,0E0],"parents":[2147483647,0,0,1,1,2,2,3,3,4,4,5,5,6,6,7,7,8,8,9,9,10,10,11,11,12,12,13,13,14,14,15,15,16,16,18,18,21,21,22,22,23,23,24,24,25,25,26,26,27,27,28,28,29,29],"right_children":[2,4,6,8,10,12,14,16,18,20,22,24,26,28,30,32,34,-1,36,-1,-1,38,40,42,44,46,48,50,52,54,-1,-1,-1,-1,-1,-1,-1,-1,-1,-1,-1,-1,-1,-1,-1,-1,-1,-1,-1,-1,-1,-1,-1,-1,-1],"split_conditions":[5.6101394E-1,-8.664397E-2,1.400929E-1,5.4159707E-1,-7.252182E-1,-2.5842077E-1,-2.2850779E-1,-2.8652022E-2,-1.0807017E-1,1.0207711E0,-7.32362E-1,-6.506577E-2,3.0483281E-2,3.1959423E-1,2.3680298E0,-6.584856E-1,7.1843755E-1,1.3682675E-1,-4.4453025E-2,1.12381816E-1,2.0488251E-2,-1.5950447E-2,-1.1113324E0,-3.5455742E-1,1.2405514E0,2.698492E-1,1.666237E0,-5.144649E-1,4.5890417E-2,-1.6373162E0,-4.6311602E-2,-1.838189E-2,8.12068E-2,-4.5431748E-2,7.300573E-2,1.6379245E-2,1.1185948E-1,-1.0336473E-2,1.0580891E-1,4.0751692E-2,-6.3131414E-2,3.758467E-2,-9.114409E-2,8.9454584E-2,-6.746795E-2,-2.9449E-2,9.517501E-2,1.1124849E-1,-1.6434131E-2,2.744481E-2,1.1881544E-1,8.1063785E-2,-5.2516785E-2,5.866358E-3,1.2946899E-1],"split_indices":[87,47,109,5,70,1,67,72,11,25,15,43,11,118,21,7,110,0,20,0,0,43,29,14,34,0,29,123,41,72,0,0,0,0,0,0,0,0,0,0,0,0,0,0,0,0,0,0,0,0,0,0,0,0,0],"split_type":[0,0,0,0,0,0,0,0,0,0,0,0,0,0,0,0,0,0,0,0,0,0,0,0,0,0,0,0,0,0,0,0,0,0,0,0,0,0,0,0,0,0,0,0,0,0,0,0,0,0,0,0,0,0,0],"sum_hessian":[6.2010455E2,4.873601E2,1.3274443E2,2.1418756E2,2.7317255E2,7.496144E1,5.778298E1,1.7228627E2,4.19013E1,1.2915851E1,2.6025668E2,4.055467E1,3.4406776E1,2.4482304E1,3.330068E1,7.545384E1,9.683243E1,2.0315994E1,2.1585304E1,1.1889874E1,1.025976E0,2.6769167E1,2.3348752E2,2.6978912E1,1.3575757E1,1.5128808E1,1.9277967E1,1.4404641E1,1.0077662E1,3.2213665E1,1.0870134E0,2.856846E1,4.6885384E1,8.632585E1,1.0506576E1,1.2517221E1,9.068082E0,1.4005895E1,1.2763272E1,2.2582094E1,2.1090543E2,4.787492E0,2.219142E1,1.0796873E1,2.7788837E0,9.606586E0,5.5222225E0,1.8214828E1,1.0631379E0,3.9582155E0,1.0446425E1,3.4802742E0,6.597388E0,1.5437232E0,3.066994E1],"tree_param":{"num_deleted":"0","num_feature":"193","num_nodes":"55","size_leaf_vector":"1"}},{"base_weights":[2.793534E-2,-4.588104E-2,8.765277E-1,-4.1030273E-1,1.320011E-1,-1.8154395E-1,1.0652084E0,-5.8254015E-1,5.075637E-1,8.806618E-1,2.4805892E-2,8.308459E-2,-8.338257E-1,1.0844795E-1,4.051503E-2,-6.9247E-1,7.9027754E-1,1.0299152E0,-3.5699767E-1,-2.1634015E-1,9.923776E-1,-3.2507074E-1,2.671495E-1,-9.6336946E-2,-1.2622009E-2,-7.8789905E-2,4.3883145E-2,1.1661525E-1,-2.8823439E-2,3.1536326E-2,1.3223493E-1,-1.1415559E-1,7.317547E-2,5.5470604E-2,-9.844847E-2,2.937739E-2,1.16373636E-1,6.462919E-3,-7.176015E-2,7.298087E-2,-4.2168456E-3],"categories":[],"categories_nodes":[],"categories_segments":[],"categories_sizes":[],"default_left":[0,0,0,0,0,0,0,0,0,0,0,0,0,0,0,0,0,0,0,0,0,0,0,0,0,0,0,0,0,0,0,0,0,0,0,0,0,0,0,0,0],"id":27,"left_children":[1,3,5,7,9,11,13,15,17,19,21,-1,23,-1,-1,25,27,29,31,33,35,37,39,-1,-1,-1,-1,-1,-1,-1,-1,-1,-1,-1,-1,-1,-1,-1,-1,-1,-1],"loss_changes":[3.826165E1,3.6504528E1,9.951565E0,2.9492435E1,3.0362926E1,6.141898E0,9.013367E-2,2.4085075E1,1.3786907E1,6.0226936E0,2.8255993E1,0E0,3.8416672E-1,0E0,0E0,1.5993156E1,5.213093E0,3.5073586E0,1.1029192E1,3.6266527E0,4.8285713E0,2.0911373E1,2.8197613E1,0E0,0E0,0E0,0E0,0E0,0E0,0E0,0E0,0E0,0E0,0E0,0E0,0E0,0E0,0E0,0E0,0E0,0E0],"parents":[2147483647,0,0,1,1,2,2,3,3,4,4,5,5,6,6,7,7,8,8,9,9,10,10,12,12,15,15,16,16,17,17,18,18,19,19,20,20,21,21,22,22],"right_children":[2,4,6,8,10,12,14,16,18,20,22,-1,24,-1,-1,26,28,30,32,34,36,38,40,-1,-1,-1,-1,-1,-1,-1,-1,-1,-1,-1,-1,-1,-1,-1,-1,-1,-1],"split_conditions":[1.1735113E0,-3.5158658E-1,-1.3231634E0,4.1326782E-1,-6.729634E-1,1.3348649E0,2.5262039E0,9.696556E-1,2.9144347E-1,-9.6440405E-1,-3.094683E-1,8.308459E-2,8.288039E-1,1.0844795E-1,4.051503E-2,7.302025E-1,8.983218E-1,-6.072394E-1,-1.8860748E-1,5.960685E-1,-5.9708005E-1,8.5025065E-2,-1.6837394E-1,-9.6336946E-2,-1.2622009E-2,-7.8789905E-2,4.3883145E-2,1.1661525E-1,